{"learner":{"attributes":{"scikit_learn":"{\"_estimator_type\": \"classifier\"}"},"feature_names":["loan_amnt","term","int_rate","installment","grade","emp_length","home_ownership","annual_inc","verification_status","dti","delinq_2yrs","inq_last_6mths","open_acc","revol_util","total_acc","fico_score","loan_to_income","installment_to_income","loan_to_installment","dti_to_income","fico_category","fico_rate_mismatch","inq_to_open_acc","delinq_rate","acc_utilization","high_revol_util","high_int_rate","rate_vs_grade_avg","emp_unknown","income_per_emp_year","stable_employment","risk_score","high_risk","term_rate_interaction","log_annual_inc","log_loan_amnt"],"feature_types":["float","int","float","float","int","float","int","float","int","float","float","float","float","float","float","int","float","float","float","float","int","float","float","float","float","int","int","float","int","float","int","float","int","float","float","float"],"gradient_booster":{"model":{"gbtree_model_param":{"num_parallel_tree":"1","num_trees":"400"},"iteration_indptr":[0,1,2,3,4,5,6,7,8,9,10,11,12,13,14,15,16,17,18,19,20,21,22,23,24,25,26,27,28,29,30,31,32,33,34,35,36,37,38,39,40,41,42,43,44,45,46,47,48,49,50,51,52,53,54,55,56,57,58,59,60,61,62,63,64,65,66,67,68,69,70,71,72,73,74,75,76,77,78,79,80,81,82,83,84,85,86,87,88,89,90,91,92,93,94,95,96,97,98,99,100,101,102,103,104,105,106,107,108,109,110,111,112,113,114,115,116,117,118,119,120,121,122,123,124,125,126,127,128,129,130,131,132,133,134,135,136,137,138,139,140,141,142,143,144,145,146,147,148,149,150,151,152,153,154,155,156,157,158,159,160,161,162,163,164,165,166,167,168,169,170,171,172,173,174,175,176,177,178,179,180,181,182,183,184,185,186,187,188,189,190,191,192,193,194,195,196,197,198,199,200,201,202,203,204,205,206,207,208,209,210,211,212,213,214,215,216,217,218,219,220,221,222,223,224,225,226,227,228,229,230,231,232,233,234,235,236,237,238,239,240,241,242,243,244,245,246,247,248,249,250,251,252,253,254,255,256,257,258,259,260,261,262,263,264,265,266,267,268,269,270,271,272,273,274,275,276,277,278,279,280,281,282,283,284,285,286,287,288,289,290,291,292,293,294,295,296,297,298,299,300,301,302,303,304,305,306,307,308,309,310,311,312,313,314,315,316,317,318,319,320,321,322,323,324,325,326,327,328,329,330,331,332,333,334,335,336,337,338,339,340,341,342,343,344,345,346,347,348,349,350,351,352,353,354,355,356,357,358,359,360,361,362,363,364,365,366,367,368,369,370,371,372,373,374,375,376,377,378,379,380,381,382,383,384,385,386,387,388,389,390,391,392,393,394,395,396,397,398,399,400],"tree_info":[0,0,0,0,0,0,0,0,0,0,0,0,0,0,0,0,0,0,0,0,0,0,0,0,0,0,0,0,0,0,0,0,0,0,0,0,0,0,0,0,0,0,0,0,0,0,0,0,0,0,0,0,0,0,0,0,0,0,0,0,0,0,0,0,0,0,0,0,0,0,0,0,0,0,0,0,0,0,0,0,0,0,0,0,0,0,0,0,0,0,0,0,0,0,0,0,0,0,0,0,0,0,0,0,0,0,0,0,0,0,0,0,0,0,0,0,0,0,0,0,0,0,0,0,0,0,0,0,0,0,0,0,0,0,0,0,0,0,0,0,0,0,0,0,0,0,0,0,0,0,0,0,0,0,0,0,0,0,0,0,0,0,0,0,0,0,0,0,0,0,0,0,0,0,0,0,0,0,0,0,0,0,0,0,0,0,0,0,0,0,0,0,0,0,0,0,0,0,0,0,0,0,0,0,0,0,0,0,0,0,0,0,0,0,0,0,0,0,0,0,0,0,0,0,0,0,0,0,0,0,0,0,0,0,0,0,0,0,0,0,0,0,0,0,0,0,0,0,0,0,0,0,0,0,0,0,0,0,0,0,0,0,0,0,0,0,0,0,0,0,0,0,0,0,0,0,0,0,0,0,0,0,0,0,0,0,0,0,0,0,0,0,0,0,0,0,0,0,0,0,0,0,0,0,0,0,0,0,0,0,0,0,0,0,0,0,0,0,0,0,0,0,0,0,0,0,0,0,0,0,0,0,0,0,0,0,0,0,0,0,0,0,0,0,0,0,0,0,0,0,0,0,0,0,0,0,0,0,0,0,0,0,0,0,0,0,0,0,0,0,0,0,0,0,0,0,0,0,0,0,0,0,0,0,0,0,0,0,0,0,0,0,0,0,0,0,0,0,0,0],"trees":[{"base_weights":[5.0559256E-2,-1.1792098E0,4.029237E-1,-2.0297816E0,-7.2307813E-1,8.151556E-2,7.0231575E-1,-2.4051843E0,-1.771919E0,2.311724E-1,-8.852048E-1,-2.9842275E-1,3.2097328E-1,9.3773735E-1,2.9482063E-2,-2.4305625E0,-4.7417152E-1,-1.9692193E0,-1.3897432E0,1.3926047E0,-1.5426037E0,-1.1889211E0,-4.9867064E-1,-5.762404E-1,-1.1351075E-2,4.3164723E-2,-2.2491964E-3,1.295269E0,7.647169E-1,2.1087094E-1,-6.631194E-1,-2.5803764E0,-2.2174926E0,-1.1412627E0,1.2901801E0,-1.5112576E0,-2.0470853E0,4.3121718E-2,-1.7892346E0,1.4336836E0,-1.9059939E0,-1.9037949E0,1.1633457E0,-1.4625396E0,-9.836779E-1,4.315797E-2,-9.4992E-1,-4.1124114E-1,-1.2475189E0,-5.1016357E-2,1.4341849E0,-3.8149112E-1,3.3881393E-1,2.5503242E-1,1.4081713E0,5.3195924E-1,8.9952815E-1,-3.6749743E-2,4.7952813E-1,-9.205684E-1,-2.1781781E-1,-6.878361E-2,-7.982273E-2,2.4552824E-2,-6.784829E-2,-1.5987247E-2,-7.339687E-2,4.238536E-2,-5.8757916E-2,1.9780914E-3,-5.918777E-2,-6.400352E-2,-4.8998754E-2,-5.806927E-2,-4.232815E-2,4.3159306E-2,3.7186574E-2,-6.152288E-2,2.1743283E-2,-2.4591716E-2,-5.9323236E-2,4.306682E-2,-2.953064E-2,-4.431604E-2,2.0676661E-2,4.16431E-2,-3.352551E-2,-3.6066424E-2,-1.5106861E-2,4.312851E-2,-1.9876916E-2,-3.8480945E-2,4.2708512E-2,-7.5850016E-3,4.1601146E-3,7.6470887E-3,4.305716E-2,-2.0678842E-2,-4.080331E-3,4.316324E-2,-3.4646194E-3,4.2748235E-2,-2.8484032E-2,2.702075E-2,4.31231E-2,2.0386795E-2,1.1008426E-2,4.3163963E-2,2.071018E-2,4.282457E-2,-2.2958622E-3,4.315892E-2,2.472787E-3,-3.3858165E-2,-1.53283235E-2,1.2734405E-2,-1.8610997E-2],"categories":[],"categories_nodes":[],"categories_segments":[],"categories_sizes":[],"default_left":[0,0,0,0,0,0,0,0,0,0,0,0,0,0,0,0,0,0,0,0,0,0,0,0,0,0,0,0,0,0,0,0,0,0,0,0,0,0,0,0,0,0,0,0,0,0,0,0,0,0,0,0,0,0,0,0,0,0,0,0,0,0,0,0,0,0,0,0,0,0,0,0,0,0,0,0,0,0,0,0,0,0,0,0,0,0,0,0,0,0,0,0,0,0,0,0,0,0,0,0,0,0,0,0,0,0,0,0,0,0,0,0,0,0,0,0,0],"id":0,"left_children":[1,3,5,7,9,11,13,15,17,19,21,23,25,27,29,31,33,35,37,39,41,43,45,47,49,-1,51,53,55,57,59,61,63,65,67,69,71,-1,73,75,77,79,81,83,85,-1,87,89,91,93,95,97,99,101,103,105,107,109,111,113,115,-1,-1,-1,-1,-1,-1,-1,-1,-1,-1,-1,-1,-1,-1,-1,-1,-1,-1,-1,-1,-1,-1,-1,-1,-1,-1,-1,-1,-1,-1,-1,-1,-1,-1,-1,-1,-1,-1,-1,-1,-1,-1,-1,-1,-1,-1,-1,-1,-1,-1,-1,-1,-1,-1,-1,-1],"loss_changes":[2.151963E5,4.290961E4,3.714462E4,3.7330469E3,1.1138746E4,1.6936938E4,3.1656125E4,7.691328E2,1.7233125E3,2.1543873E4,7.2241133E3,5.739893E3,4.125936E4,9.157344E3,6.508107E3,4.895E2,2.4291599E2,5.3516406E2,8.80889E3,8.590459E2,4.0465693E3,1.9338711E3,2.367473E4,4.0505186E3,2.0296362E3,0E0,1.1457655E4,5.669797E3,3.1301484E3,2.731016E3,1.2323662E3,2.0433203E2,8.606387E2,1.1732184E2,2.5383125E1,1.6000972E3,4.5746875E2,0E0,3.756797E2,4.2285156E0,3.125418E1,2.8987598E2,2.8666888E2,4.6694336E2,6.2532363E3,0E0,2.4729238E3,1.3643339E4,6.798828E2,1.318941E3,8.087158E-1,3.1691309E3,2.3306053E4,6.6640845E3,6.4553125E2,8.9104297E2,7.125918E3,1.2444366E3,7.498961E3,5.7995264E2,1.01898267E3,0E0,0E0,0E0,0E0,0E0,0E0,0E0,0E0,0E0,0E0,0E0,0E0,0E0,0E0,0E0,0E0,0E0,0E0,0E0,0E0,0E0,0E0,0E0,0E0,0E0,0E0,0E0,0E0,0E0,0E0,0E0,0E0,0E0,0E0,0E0,0E0,0E0,0E0,0E0,0E0,0E0,0E0,0E0,0E0,0E0,0E0,0E0,0E0,0E0,0E0,0E0,0E0,0E0,0E0,0E0,0E0],"parents":[2147483647,0,0,1,1,2,2,3,3,4,4,5,5,6,6,7,7,8,8,9,9,10,10,11,11,12,12,13,13,14,14,15,15,16,16,17,17,18,18,19,19,20,20,21,21,22,22,23,23,24,24,26,26,27,27,28,28,29,29,30,30,31,31,32,32,33,33,34,34,35,35,36,36,38,38,39,39,40,40,41,41,42,42,43,43,44,44,46,46,47,47,48,48,49,49,50,50,51,51,52,52,53,53,54,54,55,55,56,56,57,57,58,58,59,59,60,60],"right_children":[2,4,6,8,10,12,14,16,18,20,22,24,26,28,30,32,34,36,38,40,42,44,46,48,50,-1,52,54,56,58,60,62,64,66,68,70,72,-1,74,76,78,80,82,84,86,-1,88,90,92,94,96,98,100,102,104,106,108,110,112,114,116,-1,-1,-1,-1,-1,-1,-1,-1,-1,-1,-1,-1,-1,-1,-1,-1,-1,-1,-1,-1,-1,-1,-1,-1,-1,-1,-1,-1,-1,-1,-1,-1,-1,-1,-1,-1,-1,-1,-1,-1,-1,-1,-1,-1,-1,-1,-1,-1,-1,-1,-1,-1,-1,-1,-1,-1],"split_conditions":[4.158E2,2.9664E2,3.011179E1,9.651941E-3,2E0,1.6652611E-3,4.147346E1,3.3211006E1,1.6652611E-3,1.2769606E0,1.6652611E-3,5.2344E2,1E0,9.366E2,4.5438614E1,8.745046E-3,2.4912E2,-2.2303943E-1,1E0,4.9109215E1,3.3701202E2,3.6576E2,1E0,1.3108708E0,2.9055408E1,4.3164723E-2,1.0197533E0,4.2588E2,2.2460667E-2,2.2460667E-2,1.4866072E-2,7.27E2,-1.1891292E0,3.543462E1,-2.8478178E-1,2E0,2.8476E2,4.3121718E-2,1.0197533E0,1.1837394E0,6.97E0,3.1474585E1,2.2069607E0,3.1826017E1,-5.191292E-1,4.315797E-2,1.0197533E0,3E0,1.41515255E1,1.1525E1,2E3,5.2344E2,2E0,8.7087077E-1,4.3314127E2,3.8442245E1,1E0,6.9084E2,1E0,1.6652611E-3,3.1087077E-1,-6.878361E-2,-7.982273E-2,2.4552824E-2,-6.784829E-2,-1.5987247E-2,-7.339687E-2,4.238536E-2,-5.8757916E-2,1.9780914E-3,-5.918777E-2,-6.400352E-2,-4.8998754E-2,-5.806927E-2,-4.232815E-2,4.3159306E-2,3.7186574E-2,-6.152288E-2,2.1743283E-2,-2.4591716E-2,-5.9323236E-2,4.306682E-2,-2.953064E-2,-4.431604E-2,2.0676661E-2,4.16431E-2,-3.352551E-2,-3.6066424E-2,-1.5106861E-2,4.312851E-2,-1.9876916E-2,-3.8480945E-2,4.2708512E-2,-7.5850016E-3,4.1601146E-3,7.6470887E-3,4.305716E-2,-2.0678842E-2,-4.080331E-3,4.316324E-2,-3.4646194E-3,4.2748235E-2,-2.8484032E-2,2.702075E-2,4.31231E-2,2.0386795E-2,1.1008426E-2,4.3163963E-2,2.071018E-2,4.282457E-2,-2.2958622E-3,4.315892E-2,2.472787E-3,-3.3858165E-2,-1.53283235E-2,1.2734405E-2,-1.8610997E-2],"split_indices":[33,33,18,21,4,22,18,18,22,27,22,33,11,33,18,21,33,27,11,18,33,33,11,27,18,0,11,33,11,11,21,15,27,18,27,4,33,0,11,27,2,18,27,18,27,0,11,4,2,31,0,33,11,27,33,18,11,33,11,22,27,0,0,0,0,0,0,0,0,0,0,0,0,0,0,0,0,0,0,0,0,0,0,0,0,0,0,0,0,0,0,0,0,0,0,0,0,0,0,0,0,0,0,0,0,0,0,0,0,0,0,0,0,0,0,0,0],"split_type":[0,0,0,0,0,0,0,0,0,0,0,0,0,0,0,0,0,0,0,0,0,0,0,0,0,0,0,0,0,0,0,0,0,0,0,0,0,0,0,0,0,0,0,0,0,0,0,0,0,0,0,0,0,0,0,0,0,0,0,0,0,0,0,0,0,0,0,0,0,0,0,0,0,0,0,0,0,0,0,0,0,0,0,0,0,0,0,0,0,0,0,0,0,0,0,0,0,0,0,0,0,0,0,0,0,0,0,0,0,0,0,0,0,0,0,0,0],"sum_hessian":[4.9661212E5,1.1060231E5,3.860098E5,3.8606812E4,7.19955E4,1.8616078E5,1.9984903E5,1.5717112E4,2.28897E4,1.0455534E4,6.1539965E4,7.196943E4,1.1419136E5,1.4804747E5,5.1801562E4,1.5512975E4,2.0413762E2,1.5093465E4,7.796234E3,6.318515E3,4.1370195E3,3.4460676E4,2.707929E4,3.6573703E4,3.5395723E4,2.5611533E4,8.857983E4,4.8278227E4,9.976924E4,4.1051164E4,1.0750399E4,9.102036E3,6.4109385E3,1.4838664E2,5.575098E1,2.1963342E3,1.2897131E4,9.649371E2,6.831297E3,6.241354E3,7.716105E1,3.6500994E3,4.8692014E2,1.4767438E4,1.9693238E4,5.1155234E3,2.1963766E4,2.9358932E4,7.21477E3,3.4451348E4,9.4437494E2,4.1942332E4,4.6637496E4,4.7271743E3,4.3551055E4,3.659363E4,6.317561E4,2.1362377E4,1.9688787E4,6.8113706E3,3.9390293E3,1.9947404E3,7.107296E3,9.157575E1,6.319363E3,1.021748E2,4.6211838E1,5.4267113E1,1.4838663E0,4.975192E2,1.6988151E3,1.0666667E4,2.2304631E3,4.922197E3,1.9091001E3,6.0796123E3,1.6174144E2,7.33454E1,3.8156564E0,2.3296703E2,3.4171323E3,4.3244104E2,5.4479095E1,1.4667807E4,9.963103E1,1.0514253E3,1.8641812E4,1.4031229E4,7.9325376E3,3.5127356E3,2.5846197E4,7.1214985E3,9.32716E1,1.66918E4,1.7759549E4,1.0599046E0,9.4331506E2,1.8608107E4,2.3334223E4,1.3631221E4,3.3006277E4,2.397928E3,2.3292463E3,2.376306E3,4.1174746E4,1.9314217E4,1.7279412E4,1.7655467E4,4.5520145E4,5.640812E2,2.0798295E4,5.764185E3,1.3924602E4,4.5160415E3,2.2953293E3,1.5175713E3,2.421458E3],"tree_param":{"num_deleted":"0","num_feature":"36","num_nodes":"117","size_leaf_vector":"1"}},{"base_weights":[4.9089465E-2,-1.1249378E0,3.9243183E-1,-1.9144461E0,-6.9488263E-1,4.4070635E-2,7.211315E-1,-1.7344091E0,-2.4196184E0,2.2581947E-1,-8.4970796E-1,3.1860727E-1,-3.1947446E-1,4.2696614E-2,3.5423315E-1,-1.9337778E0,-1.3019105E0,-1.9529767E0,-2.494408E0,-6.258547E-1,1.2585901E0,-4.9674147E-1,-1.172453E0,-6.186939E-2,5.611387E-1,7.703664E-2,-4.934469E-1,-3.7709743E-1,5.345272E-1,-1.6398789E0,-2.1097877E0,4.2859886E-2,-1.7148162E0,-2.0364256E0,-1.5095084E0,-2.6574798E0,-2.3323317E0,-1.6062325E-1,-1.2720275E0,1.3098365E0,-1.8917739E0,-8.41019E-1,-5.820008E-2,-1.3979745E0,-8.796887E-1,2.757103E-1,-2.2311741E-1,4.262176E-2,2.4267203E-1,-3.9031312E-1,1.3907111E0,-7.252091E-1,-2.3704238E-1,1.7065759E-1,-6.396312E-1,8.2812136E-1,2.8742737E-1,-5.413119E-2,-3.9971314E-2,-7.181565E-2,-5.8869556E-2,-5.6311637E-2,-3.7636727E-2,-5.4445103E-2,-6.682264E-2,-5.7627358E-2,-3.530554E-2,-7.61803E-2,-8.177867E-2,-7.021435E-2,-2.3089552E-2,-1.5229425E-2,3.8652554E-2,1.177371E-2,-4.2595796E-2,4.049122E-2,-1.6733263E-2,-1.3484676E-2,-6.1354615E-2,-9.652093E-3,-2.9891804E-2,4.2597514E-2,-1.6994122E-2,-4.2355355E-2,3.326204E-2,4.2591583E-2,-3.5769317E-2,-5.3379713E-3,4.259277E-2,-1.2889539E-2,1.3256957E-3,-4.065677E-3,1.7385332E-2,-2.0957962E-2,-5.033808E-3,4.2851113E-2,-2.7428482E-2,-2.9388309E-2,-1.5125144E-2,-4.2687757E-3,-2.2861639E-2,8.627663E-3,-2.0916816E-2,-1.4271175E-2,-4.240787E-2,1.8771874E-2,2.910708E-2,1.919011E-2,5.0216555E-3],"categories":[],"categories_nodes":[],"categories_segments":[],"categories_sizes":[],"default_left":[0,0,0,0,0,0,0,0,0,0,0,0,0,0,0,0,0,0,0,0,0,0,0,0,0,0,0,0,0,0,0,0,0,0,0,0,0,0,0,0,0,0,0,0,0,0,0,0,0,0,0,0,0,0,0,0,0,0,0,0,0,0,0,0,0,0,0,0,0,0,0,0,0,0,0,0,0,0,0,0,0,0,0,0,0,0,0,0,0,0,0,0,0,0,0,0,0,0,0,0,0,0,0,0,0,0,0,0,0],"id":1,"left_children":[1,3,5,7,9,11,13,15,17,19,21,23,25,-1,27,29,31,33,35,37,39,41,43,45,47,49,51,53,55,57,59,-1,61,63,65,67,69,71,73,75,77,79,81,83,85,87,89,-1,91,93,95,97,99,101,103,105,107,-1,-1,-1,-1,-1,-1,-1,-1,-1,-1,-1,-1,-1,-1,-1,-1,-1,-1,-1,-1,-1,-1,-1,-1,-1,-1,-1,-1,-1,-1,-1,-1,-1,-1,-1,-1,-1,-1,-1,-1,-1,-1,-1,-1,-1,-1,-1,-1,-1,-1,-1,-1],"loss_changes":[1.9988728E5,3.8096188E4,4.393343E4,3.594375E3,1.0354918E4,1.8590941E4,5.0851273E4,2.5130625E3,3.5785938E2,9.199099E3,7.0832734E3,9.793143E3,5.528481E3,0E0,1.7095922E4,1.0294219E3,1.0384388E4,5.0226562E1,2.3046094E2,1.7229319E3,7.6556836E2,4.4845054E3,2.1433555E3,2.249007E3,1.7742088E4,1.500601E4,3.3099854E3,3.6876692E3,7.545674E3,3.7611914E2,5.183008E2,0E0,5.949512E2,4.713965E1,2.9485413E1,2.9128906E1,5.5472656E1,1.6770181E3,5.909241E2,3.4712305E2,1.5907806E1,1.3422324E3,9.815731E3,6.3946094E2,1.0163613E4,6.931718E3,1.5436543E3,0E0,6.0247466E3,1.2366216E3,5.58042E2,1.6446963E3,1.315502E3,8.434316E2,2.1986387E3,1.3666172E3,2.3880532E3,0E0,0E0,0E0,0E0,0E0,0E0,0E0,0E0,0E0,0E0,0E0,0E0,0E0,0E0,0E0,0E0,0E0,0E0,0E0,0E0,0E0,0E0,0E0,0E0,0E0,0E0,0E0,0E0,0E0,0E0,0E0,0E0,0E0,0E0,0E0,0E0,0E0,0E0,0E0,0E0,0E0,0E0,0E0,0E0,0E0,0E0,0E0,0E0,0E0,0E0,0E0,0E0],"parents":[2147483647,0,0,1,1,2,2,3,3,4,4,5,5,6,6,7,7,8,8,9,9,10,10,11,11,12,12,14,14,15,15,16,16,17,17,18,18,19,19,20,20,21,21,22,22,23,23,24,24,25,25,26,26,27,27,28,28,29,29,30,30,32,32,33,33,34,34,35,35,36,36,37,37,38,38,39,39,40,40,41,41,42,42,43,43,44,44,45,45,46,46,48,48,49,49,50,50,51,51,52,52,53,53,54,54,55,55,56,56],"right_children":[2,4,6,8,10,12,14,16,18,20,22,24,26,-1,28,30,32,34,36,38,40,42,44,46,48,50,52,54,56,58,60,-1,62,64,66,68,70,72,74,76,78,80,82,84,86,88,90,-1,92,94,96,98,100,102,104,106,108,-1,-1,-1,-1,-1,-1,-1,-1,-1,-1,-1,-1,-1,-1,-1,-1,-1,-1,-1,-1,-1,-1,-1,-1,-1,-1,-1,-1,-1,-1,-1,-1,-1,-1,-1,-1,-1,-1,-1,-1,-1,-1,-1,-1,-1,-1,-1,-1,-1,-1,-1,-1],"split_conditions":[4.158E2,2.9664E2,3.7E1,3E0,2E0,1E0,6E1,1.6652611E-3,4.1E4,3.2645932E2,1E0,1.6652611E-3,2E0,4.2696614E-2,8.2149725E2,1E0,1E0,2.844E2,2.4048E2,3.204E2,6E1,1.6652611E-3,2.2460667E-2,2E0,1E0,6.68E2,5.2344E2,1E0,1E0,7.9488583E0,2.4912E2,4.2859886E-2,1.0197533E0,7.58E2,8.441189E-1,7.04E4,9.374552E-1,3.1212E2,2E0,3E0,7.08E2,2E0,1E0,3.7E1,1E0,6.68E2,1.0919E1,4.262176E-2,1.0197533E0,1.0150713E1,8.02E2,1.6652611E-3,1E0,3E0,3E0,2.2460667E-2,2E0,-5.413119E-2,-3.9971314E-2,-7.181565E-2,-5.8869556E-2,-5.6311637E-2,-3.7636727E-2,-5.4445103E-2,-6.682264E-2,-5.7627358E-2,-3.530554E-2,-7.61803E-2,-8.177867E-2,-7.021435E-2,-2.3089552E-2,-1.5229425E-2,3.8652554E-2,1.177371E-2,-4.2595796E-2,4.049122E-2,-1.6733263E-2,-1.3484676E-2,-6.1354615E-2,-9.652093E-3,-2.9891804E-2,4.2597514E-2,-1.6994122E-2,-4.2355355E-2,3.326204E-2,4.2591583E-2,-3.5769317E-2,-5.3379713E-3,4.259277E-2,-1.2889539E-2,1.3256957E-3,-4.065677E-3,1.7385332E-2,-2.0957962E-2,-5.033808E-3,4.2851113E-2,-2.7428482E-2,-2.9388309E-2,-1.5125144E-2,-4.2687757E-3,-2.2861639E-2,8.627663E-3,-2.0916816E-2,-1.4271175E-2,-4.240787E-2,1.8771874E-2,2.910708E-2,1.919011E-2,5.0216555E-3],"split_indices":[33,33,1,20,4,6,1,22,7,33,6,22,20,0,33,6,11,33,33,33,1,22,11,20,11,15,33,6,6,31,33,0,11,15,16,7,16,33,20,20,15,20,11,1,11,15,31,0,11,31,15,22,25,20,20,11,20,0,0,0,0,0,0,0,0,0,0,0,0,0,0,0,0,0,0,0,0,0,0,0,0,0,0,0,0,0,0,0,0,0,0,0,0,0,0,0,0,0,0,0,0,0,0,0,0,0,0,0,0],"split_type":[0,0,0,0,0,0,0,0,0,0,0,0,0,0,0,0,0,0,0,0,0,0,0,0,0,0,0,0,0,0,0,0,0,0,0,0,0,0,0,0,0,0,0,0,0,0,0,0,0,0,0,0,0,0,0,0,0,0,0,0,0,0,0,0,0,0,0,0,0,0,0,0,0,0,0,0,0,0,0,0,0,0,0,0,0,0,0,0,0,0,0,0,0,0,0,0,0,0,0,0,0,0,0,0,0,0,0,0,0],"sum_hessian":[4.958814E5,1.1220491E5,3.836765E5,3.956564E4,7.2639266E4,1.8626792E5,1.9740858E5,2.9173139E4,1.0392502E4,1.0456569E4,6.218269E4,1.0612565E5,8.014228E4,6.775369E4,1.296549E5,1.9965965E4,9.207175E3,1.4392917E3,8.95321E3,5.7309424E3,4.725627E3,2.9701988E4,3.2480705E4,4.1314047E4,6.48116E4,2.4440045E4,5.5702234E4,2.5641924E4,1.0401297E5,7.482352E3,1.2483611E4,1.209068E3,7.9981074E3,1.2083254E3,2.3096628E2,4.4552207E3,4.4979897E3,3.332708E3,2.3982341E3,4.650561E3,7.506565E1,1.6638777E4,1.3063211E4,1.8345256E4,1.413545E4,1.3354698E4,2.7959348E4,1.7519775E4,4.7291824E4,1.8027371E4,6.412673E3,2.9256059E4,2.6446176E4,8.308104E3,1.733382E4,4.7533367E4,5.64796E4,4.8715244E3,2.6108276E3,4.2608267E3,8.222785E3,5.9113247E3,2.0867825E3,5.642262E2,6.4409924E2,1.01126564E2,1.2983972E2,1.6487814E3,2.806439E3,4.474167E3,2.3823084E1,2.6893079E3,6.4340015E2,1.9549118E2,2.202743E3,4.553625E3,9.6936005E1,7.593346E0,6.7472305E1,3.8326426E3,1.2806134E4,3.3421143E3,9.721097E3,1.8244736E4,1.00518486E2,1.6913832E3,1.2444067E4,9.563418E3,3.79128E3,1.5772319E4,1.2187027E4,2.227858E4,2.5013242E4,7.5563813E3,1.047099E4,6.30996E3,1.02712875E2,1.3599923E4,1.5656136E4,2.2404135E4,4.042042E3,7.322238E3,9.858654E2,1.430553E4,3.0282913E3,1.9610512E4,2.7922857E4,1.4354195E4,4.2125406E4],"tree_param":{"num_deleted":"0","num_feature":"36","num_nodes":"109","size_leaf_vector":"1"}},{"base_weights":[4.9112327E-2,-1.0776418E0,3.841676E-1,-1.8219904E0,-6.6833186E-1,4.6840522E-2,7.052154E-1,-1.6559141E0,-2.283624E0,-9.914005E-1,-2.76878E-1,-2.9864514E-1,2.735434E-1,4.2165656E-2,3.4392953E-1,-1.8366561E0,-1.2569693E0,-1.8283683E0,-2.3571773E0,-1.0278304E0,1.1060176E0,4.2172585E-2,-7.878255E-1,5.729547E-2,-4.5126888E-1,4.222947E-2,-4.2675674E-2,-3.6931798E-1,5.2112603E-1,-2.1324918E0,-1.698497E0,4.233372E-2,-1.6450433E0,-1.4911919E0,-1.9301922E0,-2.492238E0,-2.207906E0,-5.1286954E-1,-1.1543354E0,4.2407762E-2,-1.832361E0,-1.0896856E0,-2.9996738E-1,-3.4614992E-1,1.3809748E0,-6.7362773E-1,-1.9742258E-1,-3.8153753E-1,2.7609742E-1,-2.1563964E-1,-1.1807932E0,8.2260454E-1,4.0381044E-1,-5.3694885E-2,-6.654056E-2,-5.1561724E-2,4.1675325E-2,-5.398053E-2,-3.602484E-2,-4.999548E-2,-3.0190751E-2,-5.943591E-2,-3.1192537E-2,-7.517458E-2,-5.7234783E-2,-6.636784E-2,3.6714792E-2,-2.9943734E-2,3.4592304E-2,-3.30723E-2,-5.4828133E-2,-7.038697E-2,-2.5849672E-2,-3.3355176E-2,3.0836651E-2,4.3227427E-2,-2.7910547E-2,-1.7177857E-2,-1.9147152E-3,4.2546473E-2,-2.4426373E-2,-1.53569495E-2,-3.6965806E-2,8.645626E-3,-1.1267358E-2,-1.8951423E-2,-4.9076737E-3,4.2445593E-2,-5.035197E-3,-2.3429854E-2,-2.3378076E-3,-4.633256E-2,-2.8756829E-2,1.4597783E-2,4.1843187E-2,6.1015794E-3,1.7390847E-2],"categories":[],"categories_nodes":[],"categories_segments":[],"categories_sizes":[],"default_left":[0,0,0,0,0,0,0,0,0,0,0,0,0,0,0,0,0,0,0,0,0,0,0,0,0,0,0,0,0,0,0,0,0,0,0,0,0,0,0,0,0,0,0,0,0,0,0,0,0,0,0,0,0,0,0,0,0,0,0,0,0,0,0,0,0,0,0,0,0,0,0,0,0,0,0,0,0,0,0,0,0,0,0,0,0,0,0,0,0,0,0,0,0,0,0,0,0],"id":2,"left_children":[1,3,5,7,9,11,13,15,17,19,21,23,25,-1,27,29,31,33,35,37,39,-1,41,43,45,-1,47,49,51,53,55,-1,57,59,61,63,65,67,69,-1,71,73,75,77,79,81,83,85,87,89,91,93,95,-1,-1,-1,-1,-1,-1,-1,-1,-1,-1,-1,-1,-1,-1,-1,-1,-1,-1,-1,-1,-1,-1,-1,-1,-1,-1,-1,-1,-1,-1,-1,-1,-1,-1,-1,-1,-1,-1,-1,-1,-1,-1,-1,-1],"loss_changes":[1.870097E5,3.459058E4,4.1350176E4,3.0845156E3,9.264355E3,1.4582942E4,4.9495938E4,2.1340547E3,3.5248047E2,3.0677266E3,2.847946E4,4.0075493E3,4.0317242E4,0E0,1.6310604E4,8.296953E2,9.570626E3,4.815625E1,1.7935938E2,2.5693438E3,6.22275E2,0E0,3.7416025E3,1.1823745E4,2.914166E3,0E0,9.496222E3,3.2024424E3,3.655754E3,1.8612695E2,8.7066797E2,0E0,5.5087305E2,2.8004333E1,4.963867E1,3.336914E1,6.79375E1,6.291951E3,1.1051172E3,0E0,3.0604355E1,7.375078E2,1.0661561E4,1.0847988E3,4.239619E2,2.4856074E3,2.085958E3,2.323398E3,2.290033E4,1.6811687E3,3.2895117E2,5.5663555E3,2.6231963E3,0E0,0E0,0E0,0E0,0E0,0E0,0E0,0E0,0E0,0E0,0E0,0E0,0E0,0E0,0E0,0E0,0E0,0E0,0E0,0E0,0E0,0E0,0E0,0E0,0E0,0E0,0E0,0E0,0E0,0E0,0E0,0E0,0E0,0E0,0E0,0E0,0E0,0E0,0E0,0E0,0E0,0E0,0E0,0E0],"parents":[2147483647,0,0,1,1,2,2,3,3,4,4,5,5,6,6,7,7,8,8,9,9,10,10,11,11,12,12,14,14,15,15,16,16,17,17,18,18,19,19,20,20,22,22,23,23,24,24,26,26,27,27,28,28,29,29,30,30,32,32,33,33,34,34,35,35,36,36,37,37,38,38,40,40,41,41,42,42,43,43,44,44,45,45,46,46,47,47,48,48,49,49,50,50,51,51,52,52],"right_children":[2,4,6,8,10,12,14,16,18,20,22,24,26,-1,28,30,32,34,36,38,40,-1,42,44,46,-1,48,50,52,54,56,-1,58,60,62,64,66,68,70,-1,72,74,76,78,80,82,84,86,88,90,92,94,96,-1,-1,-1,-1,-1,-1,-1,-1,-1,-1,-1,-1,-1,-1,-1,-1,-1,-1,-1,-1,-1,-1,-1,-1,-1,-1,-1,-1,-1,-1,-1,-1,-1,-1,-1,-1,-1,-1,-1,-1,-1,-1,-1,-1],"split_conditions":[4.158E2,2.9664E2,3.7E1,3E0,1.6652611E-3,1.6652611E-3,6E1,1.6652611E-3,4.1E4,3.7E1,1E0,2E0,1E0,4.2165656E-2,8.2149725E2,2.4912E2,1E0,2.7E4,2.4804E2,2E0,6E1,4.2172585E-2,1.0197533E0,6.68E2,5.1912E2,4.222947E-2,1.0197533E0,3E0,2E0,5.2E4,3.243857E1,4.233372E-2,1.0197533E0,5.16E5,2.0786023E-1,8.187519E1,3.7E1,6.68E2,1.2769606E0,4.2407762E-2,2.395E4,3.7E1,2E0,1.0845E1,8.02E2,1.3108708E0,1E0,5.2344E2,2E0,6.3216E2,6.1164E2,6.68E2,1.185E1,-5.3694885E-2,-6.654056E-2,-5.1561724E-2,4.1675325E-2,-5.398053E-2,-3.602484E-2,-4.999548E-2,-3.0190751E-2,-5.943591E-2,-3.1192537E-2,-7.517458E-2,-5.7234783E-2,-6.636784E-2,3.6714792E-2,-2.9943734E-2,3.4592304E-2,-3.30723E-2,-5.4828133E-2,-7.038697E-2,-2.5849672E-2,-3.3355176E-2,3.0836651E-2,4.3227427E-2,-2.7910547E-2,-1.7177857E-2,-1.9147152E-3,4.2546473E-2,-2.4426373E-2,-1.53569495E-2,-3.6965806E-2,8.645626E-3,-1.1267358E-2,-1.8951423E-2,-4.9076737E-3,4.2445593E-2,-5.035197E-3,-2.3429854E-2,-2.3378076E-3,-4.633256E-2,-2.8756829E-2,1.4597783E-2,4.1843187E-2,6.1015794E-3,1.7390847E-2],"split_indices":[33,33,1,20,22,22,1,22,7,1,11,20,11,0,33,33,11,7,33,20,1,0,11,15,33,0,11,20,20,7,18,0,11,19,22,17,1,15,27,0,0,1,11,31,15,27,26,33,11,33,33,15,31,0,0,0,0,0,0,0,0,0,0,0,0,0,0,0,0,0,0,0,0,0,0,0,0,0,0,0,0,0,0,0,0,0,0,0,0,0,0,0,0,0,0,0,0],"split_type":[0,0,0,0,0,0,0,0,0,0,0,0,0,0,0,0,0,0,0,0,0,0,0,0,0,0,0,0,0,0,0,0,0,0,0,0,0,0,0,0,0,0,0,0,0,0,0,0,0,0,0,0,0,0,0,0,0,0,0,0,0,0,0,0,0,0,0,0,0,0,0,0,0,0,0,0,0,0,0,0,0,0,0,0,0,0,0,0,0,0,0,0,0,0,0,0,0],"sum_hessian":[4.9535512E5,1.1353779E5,3.8181734E5,4.028119E4,7.32566E4,1.8618872E5,1.9562862E5,2.962717E4,1.06540205E4,4.0133066E4,3.312353E4,7.376842E4,1.124203E5,6.657623E4,1.290524E5,2.0387158E4,9.240012E3,1.4854893E3,9.168531E3,3.9448402E4,6.846662E2,7.7150156E3,2.5408518E4,2.2138613E4,5.162981E4,2.4510613E4,8.790969E4,2.5680943E4,1.0337145E5,6.4855024E3,1.3901655E4,1.1729674E3,8.067044E3,3.4818073E2,1.1373086E3,4.8051406E3,4.3633906E3,7.7807065E3,3.1667693E4,6.202595E2,6.440669E1,1.5695662E4,9.7128545E3,1.6967738E4,5.170874E3,2.7520947E4,2.4108863E4,4.261206E4,4.5297625E4,2.1592912E4,4.0880317E3,2.8955467E4,7.441599E4,1.2997974E3,5.1857056E3,1.381162E4,9.003498E1,5.9849814E3,2.0820625E3,2.5392116E2,9.425957E1,1.0745337E3,6.27748E1,4.692797E3,1.1234358E2,4.358215E3,5.1760902E0,6.0258926E3,1.7548142E3,2.9402678E4,2.2650168E3,4.1186413E1,2.3220282E1,1.5533627E4,1.6203569E2,2.5817515E3,7.1311025E3,9.415123E3,7.552616E3,5.084962E3,8.591192E1,2.1343098E4,6.17785E3,6.4706963E3,1.7638166E4,1.9838328E4,2.277373E4,1.270514E4,3.2592486E4,4.2285728E3,1.736434E4,1.5484476E3,2.539584E3,1.8243584E4,1.0711882E4,3.4782582E4,3.963341E4],"tree_param":{"num_deleted":"0","num_feature":"36","num_nodes":"97","size_leaf_vector":"1"}},{"base_weights":[4.7111545E-2,-1.0347581E0,3.7362686E-1,-1.7408489E0,-6.417958E-1,7.5858176E-2,6.57755E-1,-2.0571783E0,-1.5207984E0,2.2753356E-1,-7.8536147E-1,3.3650804E-1,-2.6844135E-1,8.8801706E-1,1.6465526E-2,-2.0799537E0,-2.7801287E-1,-1.2187142E0,-1.7142271E0,-5.6763554E-1,1.2356639E0,-4.5003507E-1,-1.0902528E0,4.2432186E-1,-3.79877E-1,-5.6269705E-1,-1.0954233E-2,1.2734125E0,6.345166E-1,5.087006E-1,-2.8434792E-1,-1.9225017E0,-2.2646337E0,-9.1994274E-1,1.302031E0,-3.9508533E-1,-1.3089985E0,-1.7988429E0,-1.3929691E0,-8.395105E-1,1.3285943E0,1.3005824E0,-8.0090666E-1,7.5721145E-2,-6.2523717E-1,-6.1573684E-1,-1.2048177E0,7.274612E-1,2.3978794E-1,-6.197076E-1,-8.128546E-2,-1.2300052E-1,-7.197975E-1,7.4256283E-1,-2.5053927E-1,4.417738E-1,1.3907793E0,8.963482E-1,3.855707E-1,5.8426243E-1,-5.39249E-1,-1.6009387E-1,-1.205285E0,-4.81486E-2,-6.188825E-2,-6.3217275E-2,-7.1215205E-2,-1.1884969E-2,-6.31828E-2,4.1729838E-2,1.0489956E-2,-3.6466356E-2,3.4987427E-2,-4.324116E-2,-2.9200455E-2,-5.707807E-2,-4.769642E-2,4.3567512E-2,-5.0896905E-2,1.3593805E-2,-2.9926479E-2,4.13723E-2,-4.3919533E-2,-4.6181306E-2,3.9681852E-2,-3.4940217E-2,4.072418E-2,-1.620252E-2,4.0670026E-2,-2.8226929E-2,-1.2811225E-2,-3.1400934E-2,3.1731084E-2,-3.66591E-2,2.8477069E-2,7.276133E-3,4.19195E-2,-4.874646E-4,1.3850464E-2,-2.3186265E-2,-1.2945688E-2,4.2054478E-2,-4.8924987E-3,-1.8780146E-2,4.0009588E-2,-3.7143882E-2,-1.9196488E-2,-5.555459E-3,4.239061E-2,-1.3325929E-2,6.2656887E-3,9.108164E-3,4.1506022E-2,4.1557968E-2,4.2040773E-2,4.1521568E-2,2.5380276E-2,4.140649E-2,9.984811E-3,2.705425E-2,1.4852795E-2,-2.7074877E-2,-8.488813E-3,-1.4530352E-3,-2.1313401E-2,-4.3686707E-2,-2.6958553E-2],"categories":[],"categories_nodes":[],"categories_segments":[],"categories_sizes":[],"default_left":[0,0,0,0,0,0,0,0,0,0,0,0,0,0,0,0,0,0,0,0,0,0,0,0,0,0,0,0,0,0,0,0,0,0,0,0,0,0,0,0,0,0,0,0,0,0,0,0,0,0,0,0,0,0,0,0,0,0,0,0,0,0,0,0,0,0,0,0,0,0,0,0,0,0,0,0,0,0,0,0,0,0,0,0,0,0,0,0,0,0,0,0,0,0,0,0,0,0,0,0,0,0,0,0,0,0,0,0,0,0,0,0,0,0,0,0,0,0,0,0,0,0,0,0,0,0,0],"id":3,"left_children":[1,3,5,7,9,11,13,15,17,19,21,23,25,27,29,31,33,35,37,39,41,43,45,47,49,51,53,55,57,59,61,63,65,67,69,71,73,75,77,79,81,83,85,87,89,91,93,95,97,99,101,103,105,107,109,111,113,115,117,119,121,123,125,-1,-1,-1,-1,-1,-1,-1,-1,-1,-1,-1,-1,-1,-1,-1,-1,-1,-1,-1,-1,-1,-1,-1,-1,-1,-1,-1,-1,-1,-1,-1,-1,-1,-1,-1,-1,-1,-1,-1,-1,-1,-1,-1,-1,-1,-1,-1,-1,-1,-1,-1,-1,-1,-1,-1,-1,-1,-1,-1,-1,-1,-1,-1,-1],"loss_changes":[1.7475958E5,3.1822992E4,3.2152035E4,2.8513828E3,9.196855E3,1.6652637E4,2.8716062E4,6.810156E2,1.4112812E3,8.373885E3,6.4654297E3,6.6439453E3,6.057707E3,1.3978805E4,7.607898E3,4.7858594E2,2.1800745E2,7.018672E2,3.9827734E2,3.0118635E3,6.1002246E2,2.7745366E3,1.7999922E3,5.262537E3,8.258119E2,2.5772842E3,7.698217E3,5.5409297E3,5.625953E3,1.543561E3,3.649099E3,3.9678906E2,1.2627344E2,9.39659E1,4.780922E0,1.1985925E3,3.767998E2,2.4992578E2,2.66137E3,1.0440115E3,1.053136E2,2.8280713E2,1.1378623E2,5.9353545E3,1.4130127E3,4.6485117E3,9.8696094E2,1.1563094E4,3.3224998E3,1.8400708E2,6.235572E2,7.19829E3,1.1378936E3,6.399129E3,2.878546E3,9.134121E2,9.6875E-1,1.0316445E3,2.3209004E3,5.1429346E2,1.2181784E2,1.7268237E3,2.9043408E2,0E0,0E0,0E0,0E0,0E0,0E0,0E0,0E0,0E0,0E0,0E0,0E0,0E0,0E0,0E0,0E0,0E0,0E0,0E0,0E0,0E0,0E0,0E0,0E0,0E0,0E0,0E0,0E0,0E0,0E0,0E0,0E0,0E0,0E0,0E0,0E0,0E0,0E0,0E0,0E0,0E0,0E0,0E0,0E0,0E0,0E0,0E0,0E0,0E0,0E0,0E0,0E0,0E0,0E0,0E0,0E0,0E0,0E0,0E0,0E0,0E0,0E0,0E0,0E0],"parents":[2147483647,0,0,1,1,2,2,3,3,4,4,5,5,6,6,7,7,8,8,9,9,10,10,11,11,12,12,13,13,14,14,15,15,16,16,17,17,18,18,19,19,20,20,21,21,22,22,23,23,24,24,25,25,26,26,27,27,28,28,29,29,30,30,31,31,32,32,33,33,34,34,35,35,36,36,37,37,38,38,39,39,40,40,41,41,42,42,43,43,44,44,45,45,46,46,47,47,48,48,49,49,50,50,51,51,52,52,53,53,54,54,55,55,56,56,57,57,58,58,59,59,60,60,61,61,62,62],"right_children":[2,4,6,8,10,12,14,16,18,20,22,24,26,28,30,32,34,36,38,40,42,44,46,48,50,52,54,56,58,60,62,64,66,68,70,72,74,76,78,80,82,84,86,88,90,92,94,96,98,100,102,104,106,108,110,112,114,116,118,120,122,124,126,-1,-1,-1,-1,-1,-1,-1,-1,-1,-1,-1,-1,-1,-1,-1,-1,-1,-1,-1,-1,-1,-1,-1,-1,-1,-1,-1,-1,-1,-1,-1,-1,-1,-1,-1,-1,-1,-1,-1,-1,-1,-1,-1,-1,-1,-1,-1,-1,-1,-1,-1,-1,-1,-1,-1,-1,-1,-1,-1,-1,-1,-1,-1,-1],"split_conditions":[4.158E2,2.9664E2,3.011179E1,9.651941E-3,2E0,1E0,4.147346E1,3.3211006E1,1E0,3.2645932E2,1E0,1E0,5.2344E2,1E0,1E0,3E0,2.4912E2,2E0,1.5927337E-2,3.1733942E1,3E0,2E0,2E0,2E0,2.3410404E-2,2E0,1E0,4.3314127E2,1E0,3E0,3E0,1E0,6.6E4,3.543462E1,3E0,6.68E2,2.8476E2,8.496E0,1E0,2E0,3.855731E1,6.97E0,9.67E0,6.68E2,3.6576E2,6.68E2,3.1826017E1,6.68E2,5.2344E2,1.0356E1,1E0,6.68E2,4.3727167E2,5.418E2,6.864E2,3.0311296E1,9.366E2,9.366E2,9.366E2,2E0,1.515896E-2,4.585814E1,1.5435393E-2,-4.81486E-2,-6.188825E-2,-6.3217275E-2,-7.1215205E-2,-1.1884969E-2,-6.31828E-2,4.1729838E-2,1.0489956E-2,-3.6466356E-2,3.4987427E-2,-4.324116E-2,-2.9200455E-2,-5.707807E-2,-4.769642E-2,4.3567512E-2,-5.0896905E-2,1.3593805E-2,-2.9926479E-2,4.13723E-2,-4.3919533E-2,-4.6181306E-2,3.9681852E-2,-3.4940217E-2,4.072418E-2,-1.620252E-2,4.0670026E-2,-2.8226929E-2,-1.2811225E-2,-3.1400934E-2,3.1731084E-2,-3.66591E-2,2.8477069E-2,7.276133E-3,4.19195E-2,-4.874646E-4,1.3850464E-2,-2.3186265E-2,-1.2945688E-2,4.2054478E-2,-4.8924987E-3,-1.8780146E-2,4.0009588E-2,-3.7143882E-2,-1.9196488E-2,-5.555459E-3,4.239061E-2,-1.3325929E-2,6.2656887E-3,9.108164E-3,4.1506022E-2,4.1557968E-2,4.2040773E-2,4.1521568E-2,2.5380276E-2,4.140649E-2,9.984811E-3,2.705425E-2,1.4852795E-2,-2.7074877E-2,-8.488813E-3,-1.4530352E-3,-2.1313401E-2,-4.3686707E-2,-2.6958553E-2],"split_indices":[33,33,18,21,4,6,18,18,6,33,6,25,33,26,6,20,33,20,10,18,20,20,20,20,21,20,26,33,6,20,20,6,7,18,20,15,33,31,10,20,18,2,2,15,33,15,18,15,33,31,26,15,33,33,33,18,33,33,33,20,21,18,21,0,0,0,0,0,0,0,0,0,0,0,0,0,0,0,0,0,0,0,0,0,0,0,0,0,0,0,0,0,0,0,0,0,0,0,0,0,0,0,0,0,0,0,0,0,0,0,0,0,0,0,0,0,0,0,0,0,0,0,0,0,0,0,0],"split_type":[0,0,0,0,0,0,0,0,0,0,0,0,0,0,0,0,0,0,0,0,0,0,0,0,0,0,0,0,0,0,0,0,0,0,0,0,0,0,0,0,0,0,0,0,0,0,0,0,0,0,0,0,0,0,0,0,0,0,0,0,0,0,0,0,0,0,0,0,0,0,0,0,0,0,0,0,0,0,0,0,0,0,0,0,0,0,0,0,0,0,0,0,0,0,0,0,0,0,0,0,0,0,0,0,0,0,0,0,0,0,0,0,0,0,0,0,0,0,0,0,0,0,0,0,0,0,0],"sum_hessian":[4.9472134E5,1.1469406E5,3.8002728E5,4.10072E4,7.368687E4,1.8556005E5,1.9446723E5,1.6819828E4,2.4187371E4,1.0444144E4,6.3242723E4,1.0560924E5,7.9950805E4,1.4308912E5,5.1378117E4,1.660707E4,2.1275775E2,9.444645E3,1.4742728E4,5.839018E3,4.6051255E3,3.0119303E4,3.3123418E4,9.407769E4,1.153155E4,3.7310855E4,4.2639945E4,5.677316E4,8.631595E4,1.9488115E4,3.1890004E4,8.970518E3,7.6365522E3,1.5158896E2,6.1168793E1,9.335548E2,8.51109E3,1.1665553E4,3.0771748E3,5.107307E3,7.3171094E2,4.463216E3,1.419097E2,7.528358E3,2.2590945E4,6.4431035E3,2.6680316E4,3.5597566E4,5.8480125E4,6.394428E3,5.137121E3,9.822154E3,2.7488701E4,1.0286345E4,3.2353602E4,7.02192E3,4.9751242E4,4.206794E4,4.424801E4,1.8177854E4,1.3102616E3,2.8099902E4,3.7901018E3,2.7545806E3,6.2159365E3,3.1364863E3,4.500066E3,1.06080315E2,4.550865E1,5.5521755E1,5.647039E0,6.121169E2,3.214379E2,6.10149E3,2.4095994E3,7.7895625E3,3.8759902E3,2.9632257E2,2.7808523E3,5.5619415E2,4.5511133E3,7.1921564E2,1.2495338E1,3.4004704E1,4.429211E3,1.2183616E2,2.0073534E1,5.0832793E3,2.4450786E3,8.711959E3,1.3878985E4,5.123916E3,1.3191877E3,2.6469973E4,2.1034349E2,2.0649959E4,1.4947606E4,2.7151633E4,3.132849E4,3.5234795E3,2.870949E3,2.6767563E2,4.869446E3,7.3014307E3,2.5207234E3,3.6700405E3,2.3818662E4,4.3155005E3,5.970844E3,2.2759402E4,9.5942E3,6.1246743E3,8.972457E2,3.2793164E4,1.6958076E4,3.9333647E3,3.813458E4,2.226942E3,4.202107E4,3.98336E3,1.4194493E4,5.4098413E2,7.692775E2,2.3361291E4,4.738611E3,2.0823833E3,1.7077184E3],"tree_param":{"num_deleted":"0","num_feature":"36","num_nodes":"127","size_leaf_vector":"1"}},{"base_weights":[4.6647903E-2,-3.6479735E-1,6.8213004E-1,-9.836038E-2,-1.4612703E0,4.1282304E-2,3.2265076E-1,-4.5636025E-1,1.7287572E-1,-1.0601972E0,-1.7376149E0,5.084638E-1,-2.743297E-1,-1.6642614E-1,-7.478593E-1,4.1551303E-2,-1.5643468E-1,-1.2965492E0,-6.8996954E-1,-1.8705233E0,-1.433518E0,2.9145408E-1,6.6242194E-1,-7.082756E-2,-7.714908E-1,-6.831579E-2,-5.790462E-1,1.1532822E0,-7.943067E-1,-4.9345523E-1,1.9594686E-1,-9.0978897E-1,-1.3550862E0,4.1969668E-2,-1.1568851E0,-1.7582538E0,-2.1305206E0,4.240865E-2,-1.701133E0,7.091289E-2,4.6744943E-1,4.181585E-2,4.3714696E-1,-2.6328108E-1,1.8867157E-1,-1.0764244E0,-5.514389E-1,2.2601185E-2,-3.684127E-3,-2.4791019E-2,-1.1639249E-2,4.0432543E-2,2.969302E-3,-1.9082757E-2,-3.144797E-2,-7.7609303E-3,-2.5054459E-2,4.188065E-2,-7.6067857E-3,-1.8321693E-2,-3.4610588E-2,-4.5342855E-2,-3.604173E-2,-4.035856E-2,-2.271709E-2,-5.560897E-2,-4.6724074E-2,-6.440179E-2,-3.6518272E-2,-5.4614507E-2,-4.1888528E-2,-6.8693543E-3,5.983609E-3,2.4554472E-2,1.2368075E-2,7.109869E-3,1.8992856E-2,-1.224269E-2,-2.299788E-3,4.2463325E-2,-4.938019E-3,-3.6400568E-2,-1.7924948E-2,-2.2260511E-2,-6.4690053E-3],"categories":[],"categories_nodes":[],"categories_segments":[],"categories_sizes":[],"default_left":[0,0,0,0,0,0,0,0,0,0,0,0,0,0,0,0,0,0,0,0,0,0,0,0,0,0,0,0,0,0,0,0,0,0,0,0,0,0,0,0,0,0,0,0,0,0,0,0,0,0,0,0,0,0,0,0,0,0,0,0,0,0,0,0,0,0,0,0,0,0,0,0,0,0,0,0,0,0,0,0,0,0,0,0,0],"id":4,"left_children":[1,3,5,7,9,-1,11,13,15,17,19,21,23,25,27,-1,29,31,33,35,37,39,41,43,45,47,49,51,53,55,57,59,61,-1,63,65,67,-1,69,71,73,-1,75,77,79,81,83,-1,-1,-1,-1,-1,-1,-1,-1,-1,-1,-1,-1,-1,-1,-1,-1,-1,-1,-1,-1,-1,-1,-1,-1,-1,-1,-1,-1,-1,-1,-1,-1,-1,-1,-1,-1,-1,-1],"loss_changes":[1.29134484E5,8.75801E4,4.8419266E4,2.3419533E4,6.493703E3,0E0,1.4183695E4,8.78642E3,5.4775707E4,2.091336E3,1.3996562E3,3.2577637E3,3.0707573E3,2.1100205E3,4.5786934E3,0E0,1.2815035E4,3.2914062E2,9.090715E3,7.009219E2,8.0459863E3,1.5708347E3,9.398607E3,1.0756697E3,5.909297E2,1.8855277E3,4.7283423E2,2.5344006E2,2.0326797E3,4.4240996E3,2.845681E4,1.394386E2,3.0268164E2,0E0,5.724824E2,3.2010938E2,1.050625E2,0E0,3.485703E2,6.925142E2,4.3565918E2,0E0,1.7103008E3,3.3417212E2,3.975179E3,2.41521E2,3.2765906E2,0E0,0E0,0E0,0E0,0E0,0E0,0E0,0E0,0E0,0E0,0E0,0E0,0E0,0E0,0E0,0E0,0E0,0E0,0E0,0E0,0E0,0E0,0E0,0E0,0E0,0E0,0E0,0E0,0E0,0E0,0E0,0E0,0E0,0E0,0E0,0E0,0E0,0E0],"parents":[2147483647,0,0,1,1,2,2,3,3,4,4,6,6,7,7,8,8,9,9,10,10,11,11,12,12,13,13,14,14,16,16,17,17,18,18,19,19,20,20,21,21,22,22,23,23,24,24,25,25,26,26,27,27,28,28,29,29,30,30,31,31,32,32,34,34,35,35,36,36,38,38,39,39,40,40,42,42,43,43,44,44,45,45,46,46],"right_children":[2,4,6,8,10,-1,12,14,16,18,20,22,24,26,28,-1,30,32,34,36,38,40,42,44,46,48,50,52,54,56,58,60,62,-1,64,66,68,-1,70,72,74,-1,76,78,80,82,84,-1,-1,-1,-1,-1,-1,-1,-1,-1,-1,-1,-1,-1,-1,-1,-1,-1,-1,-1,-1,-1,-1,-1,-1,-1,-1,-1,-1,-1,-1,-1,-1,-1,-1,-1,-1,-1,-1],"split_conditions":[3.7E1,3.1367628E1,6E1,1.6652611E-3,3.1957958E1,4.1282304E-2,4.29475E1,2.9631386E1,1E0,2.2460667E-2,1.6652611E-3,2.2460667E-2,4.585814E1,1E0,2E0,4.1551303E-2,1.0197533E0,3.8E4,1E0,3.2680405E1,1E0,1.1565E1,1E0,2.2460667E-2,7.551E0,3E0,8.4755564E-1,3.1297443E1,3.0546787E1,2.9631386E1,2E0,2E0,1.0176102E1,4.1969668E-2,1.0197533E0,8.157E0,3.3211006E1,4.240865E-2,8.496E0,8.681544E-1,1E0,4.181585E-2,1.0197533E0,9.851E0,1E0,8.9501816E-1,1.6652611E-3,2.2601185E-2,-3.684127E-3,-2.4791019E-2,-1.1639249E-2,4.0432543E-2,2.969302E-3,-1.9082757E-2,-3.144797E-2,-7.7609303E-3,-2.5054459E-2,4.188065E-2,-7.6067857E-3,-1.8321693E-2,-3.4610588E-2,-4.5342855E-2,-3.604173E-2,-4.035856E-2,-2.271709E-2,-5.560897E-2,-4.6724074E-2,-6.440179E-2,-3.6518272E-2,-5.4614507E-2,-4.1888528E-2,-6.8693543E-3,5.983609E-3,2.4554472E-2,1.2368075E-2,7.109869E-3,1.8992856E-2,-1.224269E-2,-2.299788E-3,4.2463325E-2,-4.938019E-3,-3.6400568E-2,-1.7924948E-2,-2.2260511E-2,-6.4690053E-3],"split_indices":[1,18,1,22,18,0,18,18,11,11,22,11,18,25,4,0,11,7,11,18,11,31,11,11,31,4,16,18,18,18,11,4,12,0,11,31,18,0,31,16,26,0,11,31,11,16,22,0,0,0,0,0,0,0,0,0,0,0,0,0,0,0,0,0,0,0,0,0,0,0,0,0,0,0,0,0,0,0,0,0,0,0,0,0,0],"split_type":[0,0,0,0,0,0,0,0,0,0,0,0,0,0,0,0,0,0,0,0,0,0,0,0,0,0,0,0,0,0,0,0,0,0,0,0,0,0,0,0,0,0,0,0,0,0,0,0,0,0,0,0,0,0,0,0,0,0,0,0,0,0,0,0,0,0,0,0,0,0,0,0,0,0,0,0,0,0,0,0,0,0,0,0,0],"sum_hessian":[4.938842E5,2.9978666E5,1.9409753E5,2.4118186E5,5.860479E4,6.623439E4,1.2786315E5,1.0396266E5,1.372192E5,2.3909105E4,3.4695684E4,9.7512164E4,3.0350986E4,5.2122027E4,5.184063E4,2.9313846E4,1.0790535E5,1.4591466E4,9.31764E3,2.4139936E4,1.055575E4,4.047045E4,5.704171E4,2.1536592E4,8.814394E3,4.2110426E4,1.0011601E4,1.2357618E3,5.0604867E4,5.5154625E4,5.2750727E4,1.9203113E3,1.2671154E4,1.7018125E3,7.6158267E3,1.6865148E4,7.2747856E3,9.06566E2,9.649184E3,1.7962678E4,2.2507771E4,1.3430232E4,4.361148E4,1.2365728E4,9.170864E3,3.692993E3,5.121401E3,2.6180012E3,3.949242E4,4.3620596E3,5.6495415E3,1.043084E3,1.9267784E2,3.1182117E4,1.942275E4,3.2694148E4,2.2460477E4,1.4373855E4,3.837687E4,8.641716E2,1.0561396E3,6.2771E3,6.394054E3,5.1742456E3,2.441581E3,1.1428191E4,5.4369575E3,7.1466177E3,1.2816798E2,6.930764E3,2.7184194E3,5.3890347E3,1.2573643E4,3.0555889E3,1.9452184E4,2.1575447E4,2.2036031E4,6.9622188E3,5.4035083E3,2.0497832E3,7.121081E3,2.8707068E3,8.2228595E2,3.2664167E3,1.8549843E3],"tree_param":{"num_deleted":"0","num_feature":"36","num_nodes":"85","size_leaf_vector":"1"}},{"base_weights":[4.4927005E-2,-9.570765E-1,3.559867E-1,-1.5916936E0,-5.971966E-1,7.2580144E-2,6.3043636E-1,-1.4478726E0,-1.9873015E0,2.3001647E-1,-7.311525E-1,3.2556728E-1,-2.5864145E-1,8.8363504E-1,8.037918E-2,-1.6042598E0,-1.0998591E0,-1.6137612E0,-2.0563028E0,-5.1076E-1,1.2036531E0,-4.220429E-1,-1.0089561E0,-2.6345382E-2,5.500357E-1,-4.8720697E-1,3.218886E-2,1.2137629E0,6.9964504E-1,5.41418E-1,-2.0908798E-1,-1.3620507E0,-1.7480601E0,1.1426512E0,-1.2758281E0,-1.8114723E0,-1.4332381E0,-2.1671364E0,-1.9331754E0,-7.6167053E-1,1.3157612E0,1.2710167E0,-8.529471E-1,-7.2353464E-1,-2.7318165E-2,-1.197747E0,-7.617765E-1,-2.6513112E-1,2.060539E-1,1.2302296E0,4.2943418E-1,-8.294758E-2,-6.3544816E-1,-4.652104E-2,1.1928921E0,2.1786952E-1,1.3240731E0,9.2977875E-1,4.735024E-1,2.9365838E-1,8.002862E-1,-1.0034208E-1,-1.1059722E0,-4.428248E-2,-3.0199027E-2,-5.8771685E-2,-4.9113914E-2,4.1646883E-2,-3.2763217E-2,-2.7004272E-2,-4.411152E-2,-5.745764E-2,-4.369543E-2,-3.2928742E-2,-5.0419185E-2,-6.51243E-2,-1.6806725E-2,-6.0827672E-2,-5.361197E-2,-8.530519E-3,-3.504602E-2,4.0675938E-2,-3.9901957E-2,3.8815726E-2,-4.4095807E-2,3.878965E-2,-3.189488E-2,-8.214085E-3,-2.5656143E-2,3.5210982E-2,-7.4366997E-3,-4.1307144E-2,-3.1433098E-2,2.8641615E-2,-2.698237E-2,2.9844346E-3,-1.2298436E-2,9.262442E-3,-7.882767E-3,4.0918518E-2,9.069912E-3,2.0552903E-2,7.846924E-3,-1.6784288E-2,3.970729E-2,-2.6111221E-2,-1.3098015E-2,1.3285854E-3,-1.5562616E-2,2.2371886E-2,4.1158337E-2,1.3928411E-3,4.1070383E-2,2.5261696E-2,4.0551443E-2,2.9563949E-2,1.4690706E-2,6.898599E-3,1.8524947E-2,1.2132354E-2,-8.456133E-3,3.8674545E-2,1.8455274E-2,-1.0542001E-2,5.9015374E-3,-2.307688E-2,-3.9963644E-2],"categories":[],"categories_nodes":[],"categories_segments":[],"categories_sizes":[],"default_left":[0,0,0,0,0,0,0,0,0,0,0,0,0,0,0,0,0,0,0,0,0,0,0,0,0,0,0,0,0,0,0,0,0,0,0,0,0,0,0,0,0,0,0,0,0,0,0,0,0,0,0,0,0,0,0,0,0,0,0,0,0,0,0,0,0,0,0,0,0,0,0,0,0,0,0,0,0,0,0,0,0,0,0,0,0,0,0,0,0,0,0,0,0,0,0,0,0,0,0,0,0,0,0,0,0,0,0,0,0,0,0,0,0,0,0,0,0,0,0,0,0,0,0,0,0,0,0],"id":5,"left_children":[1,3,5,7,9,11,13,15,17,19,21,23,25,27,29,31,33,35,37,39,41,43,45,47,49,51,53,55,57,59,61,63,65,67,69,71,73,75,77,79,81,83,85,87,89,91,93,95,97,99,101,103,105,107,109,111,113,115,117,119,121,123,125,-1,-1,-1,-1,-1,-1,-1,-1,-1,-1,-1,-1,-1,-1,-1,-1,-1,-1,-1,-1,-1,-1,-1,-1,-1,-1,-1,-1,-1,-1,-1,-1,-1,-1,-1,-1,-1,-1,-1,-1,-1,-1,-1,-1,-1,-1,-1,-1,-1,-1,-1,-1,-1,-1,-1,-1,-1,-1,-1,-1,-1,-1,-1,-1],"loss_changes":[1.536738E5,2.6674656E4,2.926457E4,2.4019297E3,8.259447E3,1.551075E4,2.6621086E4,1.6854648E3,2.870664E2,7.4933545E3,5.5080547E3,8.29004E3,5.32842E3,7.9495312E3,8.0411113E3,7.4252344E2,3.7956133E3,6.0266113E1,1.2553906E2,2.7051675E3,6.230029E2,3.6135796E3,1.5756289E3,2.2681672E3,5.2557324E3,2.6897324E3,3.2227642E3,5.145578E3,4.373832E3,1.4902676E3,3.6099475E3,3.216045E2,3.108047E2,3.8574182E2,6.5034766E2,2.8038086E1,7.499634E1,2.8265625E1,5.8626953E1,1.00646704E3,7.7460205E1,2.740464E2,6.587158E1,1.01920215E3,3.4839465E3,5.131797E2,3.4577979E3,1.0644888E3,9.973114E2,1.1968789E3,2.3357256E3,8.0731357E3,1.5337607E3,1.4166804E3,1.7834155E2,9.220136E2,5.6072656E2,1.02039844E3,1.4866572E3,7.5711365E2,1.0276089E3,2.462112E3,3.0378027E2,0E0,0E0,0E0,0E0,0E0,0E0,0E0,0E0,0E0,0E0,0E0,0E0,0E0,0E0,0E0,0E0,0E0,0E0,0E0,0E0,0E0,0E0,0E0,0E0,0E0,0E0,0E0,0E0,0E0,0E0,0E0,0E0,0E0,0E0,0E0,0E0,0E0,0E0,0E0,0E0,0E0,0E0,0E0,0E0,0E0,0E0,0E0,0E0,0E0,0E0,0E0,0E0,0E0,0E0,0E0,0E0,0E0,0E0,0E0,0E0,0E0,0E0,0E0,0E0],"parents":[2147483647,0,0,1,1,2,2,3,3,4,4,5,5,6,6,7,7,8,8,9,9,10,10,11,11,12,12,13,13,14,14,15,15,16,16,17,17,18,18,19,19,20,20,21,21,22,22,23,23,24,24,25,25,26,26,27,27,28,28,29,29,30,30,31,31,32,32,33,33,34,34,35,35,36,36,37,37,38,38,39,39,40,40,41,41,42,42,43,43,44,44,45,45,46,46,47,47,48,48,49,49,50,50,51,51,52,52,53,53,54,54,55,55,56,56,57,57,58,58,59,59,60,60,61,61,62,62],"right_children":[2,4,6,8,10,12,14,16,18,20,22,24,26,28,30,32,34,36,38,40,42,44,46,48,50,52,54,56,58,60,62,64,66,68,70,72,74,76,78,80,82,84,86,88,90,92,94,96,98,100,102,104,106,108,110,112,114,116,118,120,122,124,126,-1,-1,-1,-1,-1,-1,-1,-1,-1,-1,-1,-1,-1,-1,-1,-1,-1,-1,-1,-1,-1,-1,-1,-1,-1,-1,-1,-1,-1,-1,-1,-1,-1,-1,-1,-1,-1,-1,-1,-1,-1,-1,-1,-1,-1,-1,-1,-1,-1,-1,-1,-1,-1,-1,-1,-1,-1,-1,-1,-1,-1,-1,-1,-1],"split_conditions":[4.158E2,2.9664E2,3.011179E1,3E0,2E0,1E0,4.0803486E1,1.6652611E-3,4.29E4,3.2645932E2,1E0,1.6652611E-3,5.5188E2,9.894E2,1E0,1E0,3.125E-2,5.182188E0,2.4804E2,3.1733942E1,3E0,1.6652611E-3,1.6652611E-3,5.2344E2,4.5454547E-2,2E0,2.864837E1,4.2588E2,1E0,1.6652611E-3,3E0,2.181E1,2.4912E2,3E1,1E0,8.905725E-1,6.112199E0,9.374552E-1,4.8930812E-1,1E0,3.891976E1,4.798234E1,3.1140522E1,2E0,4.1666668E-2,3.6576E2,3.7037037E-2,2E0,1E0,2.2E1,2E0,6.68E2,1.6652611E-3,1E0,5.598152E2,3.0311296E1,4.3314127E2,1E0,1.6652611E-3,4.5438614E1,4.5454547E-2,1.6652611E-3,4.4659946E1,-4.428248E-2,-3.0199027E-2,-5.8771685E-2,-4.9113914E-2,4.1646883E-2,-3.2763217E-2,-2.7004272E-2,-4.411152E-2,-5.745764E-2,-4.369543E-2,-3.2928742E-2,-5.0419185E-2,-6.51243E-2,-1.6806725E-2,-6.0827672E-2,-5.361197E-2,-8.530519E-3,-3.504602E-2,4.0675938E-2,-3.9901957E-2,3.8815726E-2,-4.4095807E-2,3.878965E-2,-3.189488E-2,-8.214085E-3,-2.5656143E-2,3.5210982E-2,-7.4366997E-3,-4.1307144E-2,-3.1433098E-2,2.8641615E-2,-2.698237E-2,2.9844346E-3,-1.2298436E-2,9.262442E-3,-7.882767E-3,4.0918518E-2,9.069912E-3,2.0552903E-2,7.846924E-3,-1.6784288E-2,3.970729E-2,-2.6111221E-2,-1.3098015E-2,1.3285854E-3,-1.5562616E-2,2.2371886E-2,4.1158337E-2,1.3928411E-3,4.1070383E-2,2.5261696E-2,4.0551443E-2,2.9563949E-2,1.4690706E-2,6.898599E-3,1.8524947E-2,1.2132354E-2,-8.456133E-3,3.8674545E-2,1.8455274E-2,-1.0542001E-2,5.9015374E-3,-2.307688E-2,-3.9963644E-2],"split_indices":[33,33,18,20,4,6,18,22,7,33,6,22,33,33,6,6,22,5,33,18,20,22,22,33,22,20,18,33,6,22,20,9,33,12,6,16,5,16,24,6,18,18,18,20,22,33,22,20,25,12,20,15,22,25,33,18,33,25,22,18,22,22,18,0,0,0,0,0,0,0,0,0,0,0,0,0,0,0,0,0,0,0,0,0,0,0,0,0,0,0,0,0,0,0,0,0,0,0,0,0,0,0,0,0,0,0,0,0,0,0,0,0,0,0,0,0,0,0,0,0,0,0,0,0,0,0,0],"split_type":[0,0,0,0,0,0,0,0,0,0,0,0,0,0,0,0,0,0,0,0,0,0,0,0,0,0,0,0,0,0,0,0,0,0,0,0,0,0,0,0,0,0,0,0,0,0,0,0,0,0,0,0,0,0,0,0,0,0,0,0,0,0,0,0,0,0,0,0,0,0,0,0,0,0,0,0,0,0,0,0,0,0,0,0,0,0,0,0,0,0,0,0,0,0,0,0,0,0,0,0,0,0,0,0,0,0,0,0,0,0,0,0,0,0,0,0,0,0,0,0,0,0,0,0,0,0,0],"sum_hessian":[4.930432E5,1.1679957E5,3.7624362E5,4.2265176E4,7.45344E4,1.8510195E5,1.9114167E5,3.0999973E4,1.1265204E4,1.038759E4,6.4146805E4,1.0494497E5,8.015698E4,1.3089044E5,6.025123E4,2.1386076E4,9.6138955E3,1.7602782E3,9.504926E3,5.8995117E3,4.488078E3,3.0363793E4,3.378301E4,4.0870586E4,6.4074387E4,4.488269E4,3.5274285E4,4.684043E4,8.405001E4,2.3238324E4,3.7012906E4,7.970864E3,1.3415212E4,6.9910913E2,8.914787E3,8.358309E2,9.244473E2,4.9934424E3,4.5114834E3,5.1874863E3,7.1202563E2,4.3461035E3,1.4197414E2,1.721449E4,1.3149304E4,1.9151568E4,1.4631445E4,2.0158244E4,2.0712344E4,9.648359E3,5.4426027E4,1.2042876E4,3.2839816E4,3.3035062E4,2.2392222E3,4.671206E3,4.2169223E4,4.1655867E4,4.239414E4,1.1875018E4,1.1363306E4,3.301143E4,4.0014763E3,6.0323022E3,1.9385616E3,4.6168926E3,8.79832E3,6.3023157E2,6.887755E1,3.0434807E3,5.871306E3,6.433366E2,1.9249428E2,3.945946E2,5.298527E2,4.9817026E3,1.1740083E1,2.7327485E3,1.7787346E3,2.3867852E3,2.8007012E3,7.018747E2,1.0150928E1,4.310709E3,3.5394833E1,1.2207364E1,1.2976677E2,3.8992644E3,1.3315226E4,2.0395574E3,1.1109747E4,8.723079E3,1.0428488E4,1.0856802E3,1.3545766E4,5.730528E3,1.4427716E4,1.6990818E4,3.7215237E3,8.432646E3,1.2157122E3,2.1570902E4,3.2855125E4,8.995734E3,3.047142E3,1.5052671E4,1.7787146E4,2.7707922E4,5.327142E3,6.417335E2,1.5974886E3,4.0666013E3,6.046046E2,2.2887893E3,3.9880434E4,3.6975914E4,4.679953E3,1.5752893E4,2.664125E4,9.958857E3,1.91616E3,3.119343E3,8.243963E3,1.7890896E4,1.5120535E4,1.609414E3,2.3920625E3],"tree_param":{"num_deleted":"0","num_feature":"36","num_nodes":"127","size_leaf_vector":"1"}},{"base_weights":[4.444967E-2,-9.2100173E-1,3.480627E-1,-1.6049349E0,-6.2098557E-1,5.9975445E-1,6.971077E-2,-1.4692183E0,-1.9302601E0,-2.901063E-1,-9.2008185E-1,2.706521E-1,7.8467834E-1,-2.947142E-1,3.0823684E-1,-1.2018487E0,-1.6164266E0,-1.5899675E0,-1.9894335E0,-6.0839117E-1,1.1242698E-1,-1.1463856E0,-6.274836E-1,-7.976452E-2,5.2875125E-1,8.4467465E-1,2.3066124E-1,-6.0601085E-1,-5.6085236E-2,1.3196106E-2,5.048003E-1,-1.3911966E0,-7.3331165E-1,-1.890515E0,-1.5248502E0,-1.691004E0,-1.3408197E0,-2.0956988E0,-1.8764877E0,-1.3548173E-1,-7.356657E-1,4.0910594E-2,-3.9425254E-1,-7.57093E-1,-1.2233984E0,4.1118644E-2,-9.6678644E-1,4.9141917E-2,-6.4312506E-1,4.062956E-2,1.570554E-1,6.2298495E-1,9.6176344E-1,-9.658995E-2,4.2120427E-1,-5.019448E-1,-1.0195117E0,4.1205175E-2,-3.9502805E-1,-5.1146746E-1,1.1576574E-1,4.1012965E-2,2.4813694E-1,-3.31743E-2,-4.6217024E-2,4.1621506E-2,-3.5533316E-2,-5.341232E-2,-6.4933226E-2,2.8209157E-2,-4.6782948E-2,-5.2820053E-2,-3.8557503E-2,-5.081292E-2,-3.206702E-2,-6.290975E-2,2.7112355E-2,4.0589053E-2,-5.644685E-2,-2.0247174E-2,3.864488E-2,-7.908521E-3,-2.5042806E-2,-2.2022018E-2,4.644509E-3,-3.184782E-2,2.0676218E-2,-3.4956593E-2,-4.8583016E-2,-3.4450825E-2,-1.9207487E-2,2.832789E-2,-6.6733956E-3,-2.8540313E-2,-5.1123137E-3,-6.952102E-3,1.600332E-2,1.7407067E-2,4.1423064E-2,4.059803E-2,2.2528546E-2,8.248788E-3,-6.9085225E-3,6.7241993E-3,1.728507E-2,-2.532717E-3,-1.9045183E-2,-3.9624155E-2,-2.0412564E-2,-2.0860635E-2,-2.178961E-3,-1.1666742E-2,-3.2242306E-2,1.2189847E-2,4.1912508E-4,-1.4162309E-3,1.51565205E-2],"categories":[],"categories_nodes":[],"categories_segments":[],"categories_sizes":[],"default_left":[0,0,0,0,0,0,0,0,0,0,0,0,0,0,0,0,0,0,0,0,0,0,0,0,0,0,0,0,0,0,0,0,0,0,0,0,0,0,0,0,0,0,0,0,0,0,0,0,0,0,0,0,0,0,0,0,0,0,0,0,0,0,0,0,0,0,0,0,0,0,0,0,0,0,0,0,0,0,0,0,0,0,0,0,0,0,0,0,0,0,0,0,0,0,0,0,0,0,0,0,0,0,0,0,0,0,0,0,0,0,0,0,0,0,0,0,0],"id":6,"left_children":[1,3,5,7,9,11,13,15,17,19,21,23,25,27,29,31,33,35,37,39,41,43,45,47,49,51,53,55,57,59,61,63,65,67,69,71,73,75,77,79,81,-1,83,85,87,-1,89,91,93,-1,95,97,99,101,103,105,107,-1,109,111,113,-1,115,-1,-1,-1,-1,-1,-1,-1,-1,-1,-1,-1,-1,-1,-1,-1,-1,-1,-1,-1,-1,-1,-1,-1,-1,-1,-1,-1,-1,-1,-1,-1,-1,-1,-1,-1,-1,-1,-1,-1,-1,-1,-1,-1,-1,-1,-1,-1,-1,-1,-1,-1,-1,-1,-1],"loss_changes":[1.4434419E5,2.4172742E4,2.6245668E4,1.5831484E3,8.1040312E3,1.197275E4,1.5463287E4,9.9585547E2,2.0969531E2,4.9815244E3,2.8472734E3,6.401307E3,4.1864688E3,5.227656E3,6.2354463E3,7.979258E2,4.0741797E2,3.727588E1,1.0410156E2,1.3067847E3,1.0885598E4,7.2615234E2,1.271993E4,2.1801646E3,1.2506668E4,2.9494297E3,7.675629E2,1.3135488E3,1.9303902E4,2.3136187E3,1.4281068E4,2.716543E2,2.4834038E3,1.1949121E2,1.0464395E3,2.9220459E1,4.2150513E1,1.9847656E1,7.420215E1,3.5377646E3,8.000586E2,0E0,2.2804072E3,1.7658157E3,4.645664E2,0E0,9.501338E2,5.9396333E3,8.1432886E2,0E0,4.1129756E3,1.2717373E3,6.136828E3,2.2510323E2,2.3744104E2,1.3537661E3,6.2631104E2,0E0,3.118026E3,4.849923E2,1.0636677E3,0E0,3.7757507E3,0E0,0E0,0E0,0E0,0E0,0E0,0E0,0E0,0E0,0E0,0E0,0E0,0E0,0E0,0E0,0E0,0E0,0E0,0E0,0E0,0E0,0E0,0E0,0E0,0E0,0E0,0E0,0E0,0E0,0E0,0E0,0E0,0E0,0E0,0E0,0E0,0E0,0E0,0E0,0E0,0E0,0E0,0E0,0E0,0E0,0E0,0E0,0E0,0E0,0E0,0E0,0E0,0E0,0E0],"parents":[2147483647,0,0,1,1,2,2,3,3,4,4,5,5,6,6,7,7,8,8,9,9,10,10,11,11,12,12,13,13,14,14,15,15,16,16,17,17,18,18,19,19,20,20,21,21,22,22,23,23,24,24,25,25,26,26,27,27,28,28,29,29,30,30,31,31,32,32,33,33,34,34,35,35,36,36,37,37,38,38,39,39,40,40,42,42,43,43,44,44,46,46,47,47,48,48,50,50,51,51,52,52,53,53,54,54,55,55,56,56,58,58,59,59,60,60,62,62],"right_children":[2,4,6,8,10,12,14,16,18,20,22,24,26,28,30,32,34,36,38,40,42,44,46,48,50,52,54,56,58,60,62,64,66,68,70,72,74,76,78,80,82,-1,84,86,88,-1,90,92,94,-1,96,98,100,102,104,106,108,-1,110,112,114,-1,116,-1,-1,-1,-1,-1,-1,-1,-1,-1,-1,-1,-1,-1,-1,-1,-1,-1,-1,-1,-1,-1,-1,-1,-1,-1,-1,-1,-1,-1,-1,-1,-1,-1,-1,-1,-1,-1,-1,-1,-1,-1,-1,-1,-1,-1,-1,-1,-1,-1,-1,-1,-1,-1,-1],"split_conditions":[4.158E2,2.8476E2,1E0,3E0,1E0,5.7168E2,6.156E2,1E0,1.0666651E1,1.6652611E-3,2.2460667E-2,1.6652611E-3,1E0,2.2460667E-2,2.2460667E-2,1.6652611E-3,8.921833E-3,2.2460667E-2,8.745046E-3,2E0,1E0,2E0,1E0,1.2887658E0,1E0,2.2460667E-2,7.41E2,1.2887658E0,1E0,1.889217E-2,1E0,8.32E3,1E0,8.02E2,-8.833998E-1,9.884E0,1.5E1,2.5092E2,-6.230394E-1,6.68E2,2E0,4.0910594E-2,1.0197533E0,6.68E2,8.569606E-1,4.1118644E-2,1.0197533E0,3E0,4.7448E2,4.062956E-2,1.0197533E0,8.01E1,1E0,4E0,1.2066E1,3E0,4.7448E2,4.1205175E-2,1.0197533E0,3E0,2E0,4.1012965E-2,1.0197533E0,-3.31743E-2,-4.6217024E-2,4.1621506E-2,-3.5533316E-2,-5.341232E-2,-6.4933226E-2,2.8209157E-2,-4.6782948E-2,-5.2820053E-2,-3.8557503E-2,-5.081292E-2,-3.206702E-2,-6.290975E-2,2.7112355E-2,4.0589053E-2,-5.644685E-2,-2.0247174E-2,3.864488E-2,-7.908521E-3,-2.5042806E-2,-2.2022018E-2,4.644509E-3,-3.184782E-2,2.0676218E-2,-3.4956593E-2,-4.8583016E-2,-3.4450825E-2,-1.9207487E-2,2.832789E-2,-6.6733956E-3,-2.8540313E-2,-5.1123137E-3,-6.952102E-3,1.600332E-2,1.7407067E-2,4.1423064E-2,4.059803E-2,2.2528546E-2,8.248788E-3,-6.9085225E-3,6.7241993E-3,1.728507E-2,-2.532717E-3,-1.9045183E-2,-3.9624155E-2,-2.0412564E-2,-2.0860635E-2,-2.178961E-3,-1.1666742E-2,-3.2242306E-2,1.2189847E-2,4.1912508E-4,-1.4162309E-3,1.51565205E-2],"split_indices":[33,33,6,20,6,33,33,6,34,22,11,22,25,11,11,22,21,11,21,20,11,20,11,27,11,11,33,27,11,21,11,29,11,15,27,31,13,33,27,15,4,0,11,15,27,0,11,4,33,0,11,13,11,4,31,4,33,0,11,20,20,0,11,0,0,0,0,0,0,0,0,0,0,0,0,0,0,0,0,0,0,0,0,0,0,0,0,0,0,0,0,0,0,0,0,0,0,0,0,0,0,0,0,0,0,0,0,0,0,0,0,0,0,0,0,0,0],"split_type":[0,0,0,0,0,0,0,0,0,0,0,0,0,0,0,0,0,0,0,0,0,0,0,0,0,0,0,0,0,0,0,0,0,0,0,0,0,0,0,0,0,0,0,0,0,0,0,0,0,0,0,0,0,0,0,0,0,0,0,0,0,0,0,0,0,0,0,0,0,0,0,0,0,0,0,0,0,0,0,0,0,0,0,0,0,0,0,0,0,0,0,0,0,0,0,0,0,0,0,0,0,0,0,0,0,0,0,0,0,0,0,0,0,0,0,0,0],"sum_hessian":[4.9243247E5,1.1780985E5,3.7462262E5,3.592009E4,8.188976E4,1.967321E5,1.7789052E5,2.5350203E4,1.056989E4,3.8880098E4,4.3009664E4,7.077639E4,1.259557E5,7.037299E4,1.0751752E5,9.004607E3,1.6345595E4,1.5698594E3,9.00003E3,2.1711895E4,1.7168203E4,2.4250629E4,1.8759037E4,3.0019775E4,4.075662E4,1.1364788E5,1.2307825E4,3.0536256E4,3.983674E4,4.2990332E4,6.452719E4,6.4115615E3,2.5930457E3,4.0886362E3,1.2256959E4,1.1127997E3,4.570597E2,4.628108E3,4.3719224E3,4.604643E3,1.710725E4,4.947794E3,1.2220408E4,4.006913E3,2.0243717E4,2.7226582E3,1.6036378E4,2.443056E4,5.5892134E3,1.2652258E4,2.8104361E4,3.9281223E4,7.436666E4,4.5293364E3,7.7784883E3,2.4398164E4,6.1380913E3,7.6341997E3,3.2202537E4,7.029433E3,3.59609E4,1.480002E4,4.972717E4,2.205725E3,4.2058364E3,4.5449023E2,2.1385554E3,2.921744E3,1.1668925E3,1.6920074E2,1.2087758E4,9.4688806E2,1.659116E2,1.9662125E2,2.6043848E2,4.626414E3,1.6935679E0,6.441479E0,4.365481E3,3.3397322E3,1.2649108E3,2.9687803E3,1.4138471E4,7.548417E3,4.6719917E3,3.3102468E3,6.9666626E2,1.765421E4,2.5895059E3,1.0304134E4,5.732244E3,5.686407E3,1.8744154E4,3.3826501E3,2.2065635E3,1.3824585E4,1.4279777E4,3.7185234E4,2.0959873E3,2.6026588E4,4.834007E4,1.1982423E3,3.331094E3,3.4252021E3,4.353286E3,5.891194E3,1.850697E4,3.2486653E3,2.889426E3,1.6671307E4,1.5531231E4,5.774515E3,1.2549178E3,9.329075E3,2.6631824E4,2.3141768E4,2.6585406E4],"tree_param":{"num_deleted":"0","num_feature":"36","num_nodes":"117","size_leaf_vector":"1"}},{"base_weights":[4.2602945E-2,-8.877953E-1,3.382616E-1,-1.4637766E0,-5.578322E-1,6.559729E-2,6.054838E-1,-1.3261168E0,-1.8443352E0,2.1436873E-1,-6.795904E-1,-2.4386199E-1,2.6945448E-1,8.564094E-1,6.8085834E-2,-1.4740497E0,-9.950961E-1,-1.5460182E0,-1.8928745E0,-4.947061E-1,1.1841309E0,-1.956807E-1,-8.1430197E-1,-4.6275017E-1,-1.0032073E-2,4.041101E-2,-1.2450383E-2,1.1904886E0,6.735326E-1,1.6677237E-1,-9.147486E-1,-1.7135197E0,-1.3615135E0,4.1381545E-2,-1.3148788E0,-1.0811509E0,-1.6849275E0,-1.9676574E0,-1.7444118E0,-7.262878E-1,1.2867208E0,1.2514067E0,-8.5690147E-1,-6.94216E-1,1.2306093E0,-9.980915E-1,-5.5685174E-1,-1.1260141E-1,-5.8650196E-1,-5.261016E-2,1.0794717E0,-3.280095E-1,2.849039E-1,2.1193829E-1,1.3016775E0,7.452088E-1,2.1947382E-1,-8.278937E-2,4.4709456E-1,-6.7944235E-1,-1.2214879E0,-5.3210367E-2,-4.1029677E-2,-4.137408E-2,4.2660896E-2,-4.3473434E-2,-2.7916802E-2,-1.5726086E-2,-3.598385E-2,-4.319736E-2,-5.678894E-2,-5.9882674E-2,-5.118288E-2,-5.562277E-2,-4.6222683E-2,1.2658974E-2,-2.5778426E-2,4.0330444E-2,-2.2205409E-2,-3.5347827E-2,3.8186345E-2,-3.589316E-2,3.9250042E-2,-2.8735861E-2,-1.56045575E-2,4.2007264E-2,-4.8397098E-2,-3.5681013E-2,-2.5462033E-2,4.080585E-2,-2.5580285E-2,-1.5585938E-2,3.97188E-2,-2.3245502E-2,-1.2746421E-2,-6.549844E-3,4.8141507E-3,1.40361395E-2,4.0815417E-2,-1.765985E-2,-3.8440924E-3,4.094942E-2,-3.8319798E-3,1.2654988E-3,4.0242746E-2,2.4651168E-2,3.988436E-2,2.5718275E-2,1.5427297E-2,1.443741E-3,1.23746665E-2,2.9468976E-3,-1.2583529E-2,4.0894978E-2,1.6740666E-3,-2.5486372E-2,-1.15954345E-2,-4.088128E-2,-2.4234135E-2],"categories":[],"categories_nodes":[],"categories_segments":[],"categories_sizes":[],"default_left":[0,0,0,0,0,0,0,0,0,0,0,0,0,0,0,0,0,0,0,0,0,0,0,0,0,0,0,0,0,0,0,0,0,0,0,0,0,0,0,0,0,0,0,0,0,0,0,0,0,0,0,0,0,0,0,0,0,0,0,0,0,0,0,0,0,0,0,0,0,0,0,0,0,0,0,0,0,0,0,0,0,0,0,0,0,0,0,0,0,0,0,0,0,0,0,0,0,0,0,0,0,0,0,0,0,0,0,0,0,0,0,0,0,0,0,0,0,0,0],"id":7,"left_children":[1,3,5,7,9,11,13,15,17,19,21,23,25,27,29,31,33,35,37,39,41,43,45,47,49,-1,51,53,55,57,59,61,63,-1,65,67,69,71,73,75,77,79,81,83,85,87,89,91,93,95,97,99,101,103,105,107,109,111,113,115,117,-1,-1,-1,-1,-1,-1,-1,-1,-1,-1,-1,-1,-1,-1,-1,-1,-1,-1,-1,-1,-1,-1,-1,-1,-1,-1,-1,-1,-1,-1,-1,-1,-1,-1,-1,-1,-1,-1,-1,-1,-1,-1,-1,-1,-1,-1,-1,-1,-1,-1,-1,-1,-1,-1,-1,-1,-1,-1],"loss_changes":[1.3509642E5,2.2507242E4,2.715455E4,2.2572578E3,7.079748E3,1.1637164E4,2.538096E4,1.5498477E3,1.6294922E2,7.0532056E3,4.239824E3,3.7495654E3,3.3782152E4,7.8383125E3,5.8112036E3,5.8765625E2,7.4339043E3,1.0205054E2,1.0590625E2,2.4453433E3,5.9593164E2,1.0072928E4,2.4068281E3,1.639523E3,1.6432208E3,0E0,8.271325E3,4.9382344E3,2.6985352E3,3.8089766E3,3.9376807E2,1.43125E2,7.3277734E2,0E0,4.4369434E2,2.3940643E1,6.0311035E1,4.523828E1,7.10293E1,8.011992E2,8.0657104E1,2.2031299E2,1.03632034E2,4.8121484E2,1.7722808E3,8.4703125E2,1.2020783E4,5.777571E3,8.507168E2,1.2038098E3,2.2835999E2,2.2279019E3,2.022684E4,8.8813416E2,5.4277344E2,1.8532383E3,3.7392078E2,1.7554425E3,9.191693E3,1.5393945E2,1.374751E2,0E0,0E0,0E0,0E0,0E0,0E0,0E0,0E0,0E0,0E0,0E0,0E0,0E0,0E0,0E0,0E0,0E0,0E0,0E0,0E0,0E0,0E0,0E0,0E0,0E0,0E0,0E0,0E0,0E0,0E0,0E0,0E0,0E0,0E0,0E0,0E0,0E0,0E0,0E0,0E0,0E0,0E0,0E0,0E0,0E0,0E0,0E0,0E0,0E0,0E0,0E0,0E0,0E0,0E0,0E0,0E0,0E0,0E0],"parents":[2147483647,0,0,1,1,2,2,3,3,4,4,5,5,6,6,7,7,8,8,9,9,10,10,11,11,12,12,13,13,14,14,15,15,16,16,17,17,18,18,19,19,20,20,21,21,22,22,23,23,24,24,26,26,27,27,28,28,29,29,30,30,31,31,32,32,34,34,35,35,36,36,37,37,38,38,39,39,40,40,41,41,42,42,43,43,44,44,45,45,46,46,47,47,48,48,49,49,50,50,51,51,52,52,53,53,54,54,55,55,56,56,57,57,58,58,59,59,60,60],"right_children":[2,4,6,8,10,12,14,16,18,20,22,24,26,28,30,32,34,36,38,40,42,44,46,48,50,-1,52,54,56,58,60,62,64,-1,66,68,70,72,74,76,78,80,82,84,86,88,90,92,94,96,98,100,102,104,106,108,110,112,114,116,118,-1,-1,-1,-1,-1,-1,-1,-1,-1,-1,-1,-1,-1,-1,-1,-1,-1,-1,-1,-1,-1,-1,-1,-1,-1,-1,-1,-1,-1,-1,-1,-1,-1,-1,-1,-1,-1,-1,-1,-1,-1,-1,-1,-1,-1,-1,-1,-1,-1,-1,-1,-1,-1,-1,-1,-1,-1,-1],"split_conditions":[4.158E2,2.9664E2,3.011179E1,3E0,2E0,1.6652611E-3,4.0803486E1,1.6652611E-3,5.304909E3,3.2645932E2,2E0,5.2344E2,1E0,9.894E2,3E0,2.4912E2,1E0,6.112199E0,2.6064E2,3.1733942E1,3E0,6.68E2,2.2460667E-2,2E0,2.8993912E1,4.041101E-2,1.0197533E0,4.2588E2,1E0,2.2460667E-2,4.585814E1,5.753996E-4,3.243857E1,4.1381545E-2,1.0197533E0,4.4833255E0,7.62E2,8.8872933E-1,5.1428574E-1,2E0,3E0,6.97E0,9.67E0,3.6576E2,8.01E2,3.6576E2,1E0,6.68E2,9.522E0,1.2201E1,5.274E2,1.0218E1,2E0,3.0311296E1,4.3314127E2,2E0,1.3209605E1,4.3959724E1,1E0,9.037923E-1,9.00238E-1,-5.3210367E-2,-4.1029677E-2,-4.137408E-2,4.2660896E-2,-4.3473434E-2,-2.7916802E-2,-1.5726086E-2,-3.598385E-2,-4.319736E-2,-5.678894E-2,-5.9882674E-2,-5.118288E-2,-5.562277E-2,-4.6222683E-2,1.2658974E-2,-2.5778426E-2,4.0330444E-2,-2.2205409E-2,-3.5347827E-2,3.8186345E-2,-3.589316E-2,3.9250042E-2,-2.8735861E-2,-1.56045575E-2,4.2007264E-2,-4.8397098E-2,-3.5681013E-2,-2.5462033E-2,4.080585E-2,-2.5580285E-2,-1.5585938E-2,3.97188E-2,-2.3245502E-2,-1.2746421E-2,-6.549844E-3,4.8141507E-3,1.40361395E-2,4.0815417E-2,-1.765985E-2,-3.8440924E-3,4.094942E-2,-3.8319798E-3,1.2654988E-3,4.0242746E-2,2.4651168E-2,3.988436E-2,2.5718275E-2,1.5427297E-2,1.443741E-3,1.23746665E-2,2.9468976E-3,-1.2583529E-2,4.0894978E-2,1.6740666E-3,-2.5486372E-2,-1.15954345E-2,-4.088128E-2,-2.4234135E-2],"split_indices":[33,33,18,20,4,22,18,22,29,33,20,33,11,33,20,33,11,5,33,18,20,15,11,20,18,0,11,33,25,11,18,23,18,0,11,12,15,16,24,20,20,2,2,33,15,33,11,15,31,31,33,31,11,18,33,8,31,18,11,16,16,0,0,0,0,0,0,0,0,0,0,0,0,0,0,0,0,0,0,0,0,0,0,0,0,0,0,0,0,0,0,0,0,0,0,0,0,0,0,0,0,0,0,0,0,0,0,0,0,0,0,0,0,0,0,0,0,0,0],"split_type":[0,0,0,0,0,0,0,0,0,0,0,0,0,0,0,0,0,0,0,0,0,0,0,0,0,0,0,0,0,0,0,0,0,0,0,0,0,0,0,0,0,0,0,0,0,0,0,0,0,0,0,0,0,0,0,0,0,0,0,0,0,0,0,0,0,0,0,0,0,0,0,0,0,0,0,0,0,0,0,0,0,0,0,0,0,0,0,0,0,0,0,0,0,0,0,0,0,0,0,0,0,0,0,0,0,0,0,0,0,0,0,0,0,0,0,0,0,0,0],"sum_hessian":[4.911142E5,1.1842971E5,3.7268447E5,4.313323E4,7.529648E4,1.844645E5,1.8821998E5,3.1678598E4,1.1454632E4,1.0255357E4,6.504112E4,7.325768E4,1.1120681E5,1.2830862E5,5.9911355E4,2.1891746E4,9.786853E3,1.6075629E3,9.847069E3,5.92418E3,4.3311772E3,1.416395E4,5.0877168E4,3.7837254E4,3.542043E4,2.3059244E4,8.814757E4,4.5388125E4,8.29205E4,5.4445324E4,5.4660317E3,6.9942295E3,1.4897516E4,1.1612102E3,8.625643E3,3.718683E2,1.2356946E3,6.540343E3,3.3067266E3,5.2431714E3,6.8100885E2,4.1933447E3,1.3783257E2,1.0495827E4,3.6681238E3,2.9683629E4,2.1193541E4,9.881113E3,2.795614E4,3.4089168E4,1.3312617E3,4.2764652E4,4.5382914E4,4.631363E3,4.075676E4,7.161496E4,1.1305537E4,2.8803346E4,2.5641979E4,3.0950032E3,2.3710288E3,5.9543994E3,1.0398301E3,1.4804295E4,9.322075E1,6.39071E3,2.2349321E3,6.610585E1,3.0576245E2,5.7105615E2,6.646385E2,5.8931274E3,6.472153E2,2.143969E3,1.1627574E3,5.4401447E2,4.699157E3,6.625096E2,1.8499285E1,3.626092E1,4.157084E3,1.1953531E2,1.8297256E1,4.1720815E3,6.323745E3,3.4621191E3,2.0600479E2,1.3012315E4,1.6671314E4,2.8327468E3,1.8360793E4,7.7004663E3,2.1806465E3,1.2908825E4,1.5047314E4,1.9175768E4,1.4913398E4,4.199774E2,9.112843E2,1.8559488E4,2.4205162E4,1.2544738E4,3.2838176E4,4.0271445E3,6.042181E2,2.2331536E3,3.852361E4,4.8216883E4,2.3398078E4,5.9895566E3,5.3159805E3,1.873204E4,1.0071307E4,7.673869E3,1.7968111E4,1.9567922E3,1.1382109E3,1.7658993E3,6.051295E2],"tree_param":{"num_deleted":"0","num_feature":"36","num_nodes":"119","size_leaf_vector":"1"}},{"base_weights":[4.1756373E-2,-7.8117865E-1,3.569709E-1,-1.4069686E0,-4.8494E-1,6.331845E-2,6.253569E-1,-1.6859906E0,-1.2503451E0,-1.7041646E-1,-7.838167E-1,3.0031544E-1,-2.4389586E-1,1.3298199E0,2.8708875E-1,-1.5686129E0,-1.8642448E0,-1.2691854E0,1.234101E0,-4.949726E-1,2.1109581E-1,-8.28627E-1,9.675904E-1,-4.002779E-3,4.9808148E-1,7.1840964E-2,-3.8344908E-1,1.327785E0,4.0773716E-2,-3.2121834E-1,4.4649062E-1,-1.505564E0,-1.9903603E0,-1.7129855E0,-1.9621457E0,-1.0176436E0,-1.4232727E0,1.3962295E0,-6.326331E-1,-5.304439E-1,1.2364559E0,4.0180564E-2,-2.7466363E-1,-1.0434804E0,-5.649742E-1,4.0416855E-2,-1.7532209E0,-1.8140918E-1,2.078705E-1,3.9802875E-2,2.2775224E-1,-3.1910065E-1,1.3250269E0,-6.1660635E-1,-2.2552042E-1,1.3242722E0,4.0185887E-2,1.4767146E-1,-5.37983E-1,7.271779E-1,2.1722631E-1,-4.744137E-2,4.7031324E-2,-4.7000207E-2,-6.219283E-2,-2.8566604E-2,-5.1965315E-2,-6.160054E-2,-5.643463E-2,-3.5598394E-2,-1.9661585E-2,-4.0419705E-2,-5.1271107E-2,4.2549565E-2,1.3037848E-2,1.1739517E-2,-4.4423316E-2,-2.9492162E-3,-1.9518044E-2,4.073501E-2,-2.7581535E-2,-1.7935846E-2,6.390411E-3,-2.0772913E-2,-3.3533003E-2,4.0522177E-2,-2.632536E-2,-4.4566408E-2,-7.241857E-2,3.0948366E-3,-9.694484E-3,1.3967706E-2,2.6078902E-3,-2.6097745E-3,1.5506906E-2,-1.4614907E-2,-1.7177489E-3,4.0815856E-2,-1.7418955E-2,-2.4948316E-2,-1.3593074E-2,-1.3096156E-2,-2.3873975E-3,4.0355936E-2,3.9645117E-2,7.703492E-3,-1.9012632E-2,-3.139966E-2,-1.1720208E-2,1.5918214E-2,2.602678E-2,-1.2064562E-4,1.1716996E-2],"categories":[],"categories_nodes":[],"categories_segments":[],"categories_sizes":[],"default_left":[0,0,0,0,0,0,0,0,0,0,0,0,0,0,0,0,0,0,0,0,0,0,0,0,0,0,0,0,0,0,0,0,0,0,0,0,0,0,0,0,0,0,0,0,0,0,0,0,0,0,0,0,0,0,0,0,0,0,0,0,0,0,0,0,0,0,0,0,0,0,0,0,0,0,0,0,0,0,0,0,0,0,0,0,0,0,0,0,0,0,0,0,0,0,0,0,0,0,0,0,0,0,0,0,0,0,0,0,0,0,0,0,0],"id":8,"left_children":[1,3,5,7,9,11,13,15,17,19,21,23,25,27,29,31,33,35,37,39,41,43,45,47,49,51,53,55,-1,57,59,61,63,65,67,69,71,73,75,77,79,-1,81,83,85,-1,87,89,91,-1,93,95,97,99,101,103,-1,105,107,109,111,-1,-1,-1,-1,-1,-1,-1,-1,-1,-1,-1,-1,-1,-1,-1,-1,-1,-1,-1,-1,-1,-1,-1,-1,-1,-1,-1,-1,-1,-1,-1,-1,-1,-1,-1,-1,-1,-1,-1,-1,-1,-1,-1,-1,-1,-1,-1,-1,-1,-1,-1,-1],"loss_changes":[1.2700842E5,2.513775E4,2.7900996E4,1.9018359E3,8.651619E3,1.2308649E4,4.4076773E4,3.247422E2,1.3078711E3,5.552979E3,3.7044648E3,5.743535E3,3.2439253E3,1.7734375E0,1.2117301E4,2.4825781E2,8.8634766E1,1.0721211E3,6.4605865E1,1.4888804E3,1.1298492E4,2.606004E3,1.2188937E3,1.4130029E3,1.2957502E4,1.1056406E4,1.8798296E3,5.390625E-1,0E0,2.6373237E3,6.3717812E3,1.9187168E3,3.971875E1,3.410547E1,2.3945312E1,6.4348047E2,3.704336E2,3.50531E0,1.5789017E1,1.2329395E3,1.2862079E2,0E0,2.2715786E3,6.603789E2,1.2372979E4,0E0,2.1996155E1,8.25301E2,5.339408E2,0E0,3.9694207E3,7.569481E2,3.6383105E2,7.243794E2,9.373877E2,7.34375E-1,0E0,6.9964136E2,1.3292192E3,1.2279551E3,2.0902417E3,0E0,0E0,0E0,0E0,0E0,0E0,0E0,0E0,0E0,0E0,0E0,0E0,0E0,0E0,0E0,0E0,0E0,0E0,0E0,0E0,0E0,0E0,0E0,0E0,0E0,0E0,0E0,0E0,0E0,0E0,0E0,0E0,0E0,0E0,0E0,0E0,0E0,0E0,0E0,0E0,0E0,0E0,0E0,0E0,0E0,0E0,0E0,0E0,0E0,0E0,0E0,0E0],"parents":[2147483647,0,0,1,1,2,2,3,3,4,4,5,5,6,6,7,7,8,8,9,9,10,10,11,11,12,12,13,13,14,14,15,15,16,16,17,17,18,18,19,19,20,20,21,21,22,22,23,23,24,24,25,25,26,26,27,27,29,29,30,30,31,31,32,32,33,33,34,34,35,35,36,36,37,37,38,38,39,39,40,40,42,42,43,43,44,44,46,46,47,47,48,48,50,50,51,51,52,52,53,53,54,54,55,55,57,57,58,58,59,59,60,60],"right_children":[2,4,6,8,10,12,14,16,18,20,22,24,26,28,30,32,34,36,38,40,42,44,46,48,50,52,54,56,-1,58,60,62,64,66,68,70,72,74,76,78,80,-1,82,84,86,-1,88,90,92,-1,94,96,98,100,102,104,-1,106,108,110,112,-1,-1,-1,-1,-1,-1,-1,-1,-1,-1,-1,-1,-1,-1,-1,-1,-1,-1,-1,-1,-1,-1,-1,-1,-1,-1,-1,-1,-1,-1,-1,-1,-1,-1,-1,-1,-1,-1,-1,-1,-1,-1,-1,-1,-1,-1,-1,-1,-1,-1,-1,-1],"split_conditions":[4.3727167E2,2.9664E2,3.7E1,2.4912E2,1E0,1E0,6E1,3E0,3.243857E1,1.6652611E-3,3.7E1,1.6652611E-3,2E0,4.147346E1,8.2149725E2,8.02E2,6.53E4,1E0,3.891976E1,3.7E1,1E0,2.2460667E-2,6E1,1.0881E1,1E0,6.68E2,1.0218E1,9.894E2,4.0773716E-2,1E0,1E0,7.38E2,5E4,2.1295057E4,3.8019524E1,1.6652611E-3,3E0,1.9784838E0,3E0,2E0,6E1,4.0180564E-2,1.0197533E0,2E0,1E0,4.0416855E-2,1.0636407E5,2E0,2E0,3.9802875E-2,1.0197533E0,1.1685E1,8.02E2,1.6652611E-3,2.2460667E-2,3.0110405E1,4.0185887E-2,3E0,6.1164E2,2.2460667E-2,1.1565E1,-4.744137E-2,4.7031324E-2,-4.7000207E-2,-6.219283E-2,-2.8566604E-2,-5.1965315E-2,-6.160054E-2,-5.643463E-2,-3.5598394E-2,-1.9661585E-2,-4.0419705E-2,-5.1271107E-2,4.2549565E-2,1.3037848E-2,1.1739517E-2,-4.4423316E-2,-2.9492162E-3,-1.9518044E-2,4.073501E-2,-2.7581535E-2,-1.7935846E-2,6.390411E-3,-2.0772913E-2,-3.3533003E-2,4.0522177E-2,-2.632536E-2,-4.4566408E-2,-7.241857E-2,3.0948366E-3,-9.694484E-3,1.3967706E-2,2.6078902E-3,-2.6097745E-3,1.5506906E-2,-1.4614907E-2,-1.7177489E-3,4.0815856E-2,-1.7418955E-2,-2.4948316E-2,-1.3593074E-2,-1.3096156E-2,-2.3873975E-3,4.0355936E-2,3.9645117E-2,7.703492E-3,-1.9012632E-2,-3.139966E-2,-1.1720208E-2,1.5918214E-2,2.602678E-2,-1.2064562E-4,1.1716996E-2],"split_indices":[33,33,1,33,6,6,1,20,18,22,1,22,20,18,33,15,7,6,18,1,11,11,1,31,11,15,31,33,0,6,6,15,7,7,17,22,20,11,20,20,1,0,11,20,11,0,7,20,20,0,11,31,15,22,11,18,0,20,33,11,31,0,0,0,0,0,0,0,0,0,0,0,0,0,0,0,0,0,0,0,0,0,0,0,0,0,0,0,0,0,0,0,0,0,0,0,0,0,0,0,0,0,0,0,0,0,0,0,0,0,0,0,0],"split_type":[0,0,0,0,0,0,0,0,0,0,0,0,0,0,0,0,0,0,0,0,0,0,0,0,0,0,0,0,0,0,0,0,0,0,0,0,0,0,0,0,0,0,0,0,0,0,0,0,0,0,0,0,0,0,0,0,0,0,0,0,0,0,0,0,0,0,0,0,0,0,0,0,0,0,0,0,0,0,0,0,0,0,0,0,0,0,0,0,0,0,0,0,0,0,0,0,0,0,0,0,0,0,0,0,0,0,0,0,0,0,0,0,0],"sum_hessian":[4.8961972E5,1.356015E5,3.5401822E5,4.3566215E4,9.203528E4,1.6905225E5,1.8496597E5,1.5659445E4,2.790677E4,4.484457E4,4.719071E4,9.5432195E4,7.362006E4,6.00031E4,1.24962875E5,9.447932E3,6.2115137E3,2.769722E4,2.0954831E2,2.4230855E4,2.0613717E4,4.6013953E4,1.1767556E3,3.7590184E4,5.7842008E4,2.2565799E4,5.105426E4,5.615024E4,3.852865E3,2.594623E4,9.901664E4,8.223181E3,1.2247513E3,2.4479172E3,3.7635964E3,1.0524295E4,1.7172926E4,1.93035E2,1.651331E1,2.374509E4,4.857654E2,6.2034424E3,1.4410274E4,2.5351662E4,2.0662293E4,1.0331094E3,1.4364618E2,2.0459291E4,1.7130895E4,1.4226735E4,4.3615273E4,1.7200658E4,5.365141E3,2.0615602E4,3.043866E4,4.3309645E4,1.2840592E4,8.2028125E3,1.7743416E4,4.4514973E4,5.4501668E4,8.025679E3,1.9750137E2,2.0334503E2,1.0214064E3,6.1479008E1,2.3864382E3,1.758718E3,2.0048784E3,7.175235E3,3.34906E3,1.3571632E4,3.6012944E3,1.8823619E2,4.7988176E0,7.7253013E0,8.788008E0,5.1663945E3,1.8578695E4,4.6022412E2,2.5541313E1,8.666505E3,5.7437695E3,4.4295474E3,2.0922113E4,2.8976577E3,1.7764635E4,1.045425E2,3.9103676E1,6.8024204E3,1.3656871E4,5.470546E3,1.1660348E4,2.0883502E4,2.273177E4,1.0475879E4,6.7247793E3,5.2672993E3,9.784165E1,8.903542E3,1.171206E4,1.2443859E4,1.79948E4,5.0033823E3,3.830626E4,7.198366E3,1.0044468E3,3.9831484E3,1.3760269E4,1.8547871E4,2.5967102E4,2.3942695E4,3.0558975E4],"tree_param":{"num_deleted":"0","num_feature":"36","num_nodes":"113","size_leaf_vector":"1"}},{"base_weights":[4.1979406E-2,-7.355303E-1,3.3928806E-1,-1.3138616E0,-4.2510423E-1,3.458723E-2,6.729428E-1,-1.5673442E0,-1.1127698E0,-6.8231875E-1,-1.0175993E-1,3.6791748E-1,-1.3470991E-1,1.316599E0,3.651678E-1,-1.4402705E0,-1.73289E0,-8.6233324E-1,-1.3146248E0,-7.885854E-1,-1.728664E-1,1.3287609E0,-5.4169536E-1,-8.9882396E-2,1.3343451E0,-3.8010603E-1,5.16187E-2,1.3153267E0,4.027933E-2,6.924761E-2,5.4515576E-1,-1.4697748E0,-2.3657706E-1,-1.4110892E0,-1.7843187E0,-1.0754129E0,-4.5428437E-1,-1.4028627E0,-1.0367353E0,-3.9514855E-1,-8.8127345E-1,1.220897E0,-7.299583E-1,3.9720006E-2,4.2272337E-2,-7.989072E-1,-1.19239524E-1,-2.999091E-1,5.4810997E-2,1.3509752E0,-6.9298357E-1,-5.336254E-1,-1.5875068E-1,3.9997634E-2,-2.0869356E-1,3.9320428E-2,3.9732195E-2,2.0253189E-1,-2.8663146E-1,4.0601548E-2,4.6188575E-1,-4.2054396E-2,-5.532698E-2,4.1618377E-2,-4.430001E-2,-3.7907925E-2,-4.806198E-2,-5.51314E-2,-5.0221507E-2,-3.9738968E-2,-2.7044587E-2,4.0572714E-2,-2.620104E-2,-3.351015E-2,-4.3465264E-2,4.40449E-2,-3.8627245E-2,-2.3973856E-2,3.3584237E-2,-2.4959989E-2,-4.4967495E-2,2.986963E-4,3.9233204E-2,-1.8294165E-2,-3.3294845E-2,-1.234761E-2,-2.6543232E-2,4.1972518E-2,-2.1439383E-2,-1.3811387E-2,-1.5562123E-3,3.9916094E-2,-4.195322E-3,4.0034696E-2,4.1229714E-2,-3.1047616E-2,-2.249696E-3,-1.2231764E-2,-3.008925E-2,1.8940095E-2,-1.0417634E-2,-1.3737416E-2,1.7356031E-3,1.4448982E-3,1.99272E-2,-2.573915E-2,-5.882669E-3,1.0200489E-2,1.9711101E-2],"categories":[],"categories_nodes":[],"categories_segments":[],"categories_sizes":[],"default_left":[0,0,0,0,0,0,0,0,0,0,0,0,0,0,0,0,0,0,0,0,0,0,0,0,0,0,0,0,0,0,0,0,0,0,0,0,0,0,0,0,0,0,0,0,0,0,0,0,0,0,0,0,0,0,0,0,0,0,0,0,0,0,0,0,0,0,0,0,0,0,0,0,0,0,0,0,0,0,0,0,0,0,0,0,0,0,0,0,0,0,0,0,0,0,0,0,0,0,0,0,0,0,0,0,0,0,0,0,0],"id":9,"left_children":[1,3,5,7,9,11,13,15,17,19,21,23,25,27,29,31,33,35,37,39,41,43,45,47,49,51,53,55,-1,57,59,61,63,65,67,69,71,73,75,77,79,81,83,-1,-1,85,87,89,91,93,95,97,99,-1,101,-1,-1,103,105,-1,107,-1,-1,-1,-1,-1,-1,-1,-1,-1,-1,-1,-1,-1,-1,-1,-1,-1,-1,-1,-1,-1,-1,-1,-1,-1,-1,-1,-1,-1,-1,-1,-1,-1,-1,-1,-1,-1,-1,-1,-1,-1,-1,-1,-1,-1,-1,-1,-1],"loss_changes":[1.128808E5,2.4249562E4,3.5912688E4,2.403125E3,7.3103213E3,1.0419355E4,3.340175E4,4.365039E2,1.3289766E3,2.6501816E3,2.4509707E4,2.751482E4,5.5987925E3,4.6875E-2,6.075548E3,4.1914062E2,1.473789E2,1.0207617E3,3.5573633E2,1.4767656E3,6.562247E3,1.6367188E0,3.236375E3,1.282473E3,6.7489453E2,1.7957749E3,2.3220758E4,4.609375E-1,0E0,2.0464235E3,4.7729473E3,2.908164E2,5.735285E2,3.326465E1,4.2884766E1,3.3324414E2,3.0533896E3,1.4366211E2,2.2101753E3,4.7275894E3,9.964219E2,2.5389209E2,2.749082E2,0E0,0E0,6.153467E2,1.0192001E4,6.851406E2,6.2052437E3,5.8007812E0,3.443122E1,1.843498E3,3.2236611E3,0E0,3.8430276E3,0E0,0E0,2.2370654E3,6.079517E2,0E0,1.5291387E3,0E0,0E0,0E0,0E0,0E0,0E0,0E0,0E0,0E0,0E0,0E0,0E0,0E0,0E0,0E0,0E0,0E0,0E0,0E0,0E0,0E0,0E0,0E0,0E0,0E0,0E0,0E0,0E0,0E0,0E0,0E0,0E0,0E0,0E0,0E0,0E0,0E0,0E0,0E0,0E0,0E0,0E0,0E0,0E0,0E0,0E0,0E0,0E0],"parents":[2147483647,0,0,1,1,2,2,3,3,4,4,5,5,6,6,7,7,8,8,9,9,10,10,11,11,12,12,13,13,14,14,15,15,16,16,17,17,18,18,19,19,20,20,21,21,22,22,23,23,24,24,25,25,26,26,27,27,29,29,30,30,31,31,32,32,33,33,34,34,35,35,36,36,37,37,38,38,39,39,40,40,41,41,42,42,45,45,46,46,47,47,48,48,49,49,50,50,51,51,52,52,54,54,57,57,58,58,60,60],"right_children":[2,4,6,8,10,12,14,16,18,20,22,24,26,28,30,32,34,36,38,40,42,44,46,48,50,52,54,56,-1,58,60,62,64,66,68,70,72,74,76,78,80,82,84,-1,-1,86,88,90,92,94,96,98,100,-1,102,-1,-1,104,106,-1,108,-1,-1,-1,-1,-1,-1,-1,-1,-1,-1,-1,-1,-1,-1,-1,-1,-1,-1,-1,-1,-1,-1,-1,-1,-1,-1,-1,-1,-1,-1,-1,-1,-1,-1,-1,-1,-1,-1,-1,-1,-1,-1,-1,-1,-1,-1,-1,-1],"split_conditions":[1.155E1,8.265369E0,3.7E1,9.892183E-3,1.6652611E-3,2E0,6E1,3E0,3.7696058E-1,3.1733942E1,1E0,6.68E2,1.6652611E-3,4.1474274E1,1.6298405E1,3.7E1,4.29E4,1.6652611E-3,7.96E0,2E0,6E1,6E1,1.0197533E0,1.6652611E-3,8.02E2,2.140325E-2,1E0,1.799E1,4.027933E-2,9.452149E-1,1E0,8.02E2,6E1,5.727273E3,8.921833E-3,7.39E0,1E0,4.08E4,8.452149E-1,6.68E2,1.2769606E0,-2.2891293E0,3E0,3.9720006E-2,4.2272337E-2,2E0,2E0,2.3695955E-2,1E0,1E0,1.50267935E1,1.3108708E0,1E0,3.9997634E-2,1.0197533E0,3.9320428E-2,3.9732195E-2,1.4726618E1,1.7632712E-2,4.0601548E-2,2.422E1,-4.2054396E-2,-5.532698E-2,4.1618377E-2,-4.430001E-2,-3.7907925E-2,-4.806198E-2,-5.51314E-2,-5.0221507E-2,-3.9738968E-2,-2.7044587E-2,4.0572714E-2,-2.620104E-2,-3.351015E-2,-4.3465264E-2,4.40449E-2,-3.8627245E-2,-2.3973856E-2,3.3584237E-2,-2.4959989E-2,-4.4967495E-2,2.986963E-4,3.9233204E-2,-1.8294165E-2,-3.3294845E-2,-1.234761E-2,-2.6543232E-2,4.1972518E-2,-2.1439383E-2,-1.3811387E-2,-1.5562123E-3,3.9916094E-2,-4.195322E-3,4.0034696E-2,4.1229714E-2,-3.1047616E-2,-2.249696E-3,-1.2231764E-2,-3.008925E-2,1.8940095E-2,-1.0417634E-2,-1.3737416E-2,1.7356031E-3,1.4448982E-3,1.99272E-2,-2.573915E-2,-5.882669E-3,1.0200489E-2,1.9711101E-2],"split_indices":[2,2,1,21,22,20,1,20,27,18,11,15,22,18,2,1,7,22,2,20,1,1,11,22,15,21,11,2,0,27,26,15,1,29,21,2,11,7,27,15,27,27,20,0,0,20,11,21,11,11,2,27,26,0,11,0,0,2,21,0,9,0,0,0,0,0,0,0,0,0,0,0,0,0,0,0,0,0,0,0,0,0,0,0,0,0,0,0,0,0,0,0,0,0,0,0,0,0,0,0,0,0,0,0,0,0,0,0,0],"split_type":[0,0,0,0,0,0,0,0,0,0,0,0,0,0,0,0,0,0,0,0,0,0,0,0,0,0,0,0,0,0,0,0,0,0,0,0,0,0,0,0,0,0,0,0,0,0,0,0,0,0,0,0,0,0,0,0,0,0,0,0,0,0,0,0,0,0,0,0,0,0,0,0,0,0,0,0,0,0,0,0,0,0,0,0,0,0,0,0,0,0,0,0,0,0,0,0,0,0,0,0,0,0,0,0,0,0,0,0,0],"sum_hessian":[4.8832034E5,1.350753E5,3.5324503E5,4.7178113E4,8.789719E4,1.8463419E5,1.6861086E5,2.0867355E4,2.6310758E4,4.8954035E4,3.8943152E4,6.218889E4,1.2244529E5,5.454225E4,1.1406861E5,1.18109375E4,9.056418E3,1.1744686E4,1.4566071E4,4.0504625E4,8.449409E3,9.15904E3,2.9784113E4,4.2199676E4,1.9989215E4,5.2845863E4,6.959943E4,5.2051062E4,2.4911885E3,4.314115E4,7.092745E4,1.15281455E4,2.8279202E2,1.2518352E3,7.8045825E3,7.7145684E3,4.0301177E3,1.1052529E4,3.513542E3,7.723905E3,3.2780723E4,2.4124976E3,6.0369116E3,8.663043E3,4.959975E2,1.8512129E4,1.1271985E4,1.7213174E4,2.4986502E4,1.982691E4,1.6230528E2,3.1203498E4,2.1642363E4,1.1749106E4,5.785032E4,3.452899E4,1.7522072E4,3.1386623E4,1.1754526E4,6.623516E3,6.430394E4,9.761284E3,1.7668616E3,1.2239768E2,1.6039435E2,7.106307E2,5.412045E2,5.2477993E3,2.5567832E3,3.168217E3,4.546351E3,7.583921E2,3.2717256E3,1.5349467E3,9.517583E3,3.1937656E2,3.1941653E3,6.0979365E3,1.625968E3,3.0360957E4,2.4197642E3,1.6156834E2,2.2509292E3,4.588253E3,1.4486583E3,3.360363E3,1.5151766E4,3.174772E3,8.0972134E3,1.0450925E4,6.7622495E3,3.3070437E3,2.1679457E4,1.1655652E4,8.1712573E3,1.04056175E2,5.8249107E1,2.460519E4,6.5983096E3,4.1684673E3,1.7473896E4,2.9896502E4,2.795382E4,2.3522992E4,7.863631E3,1.6068057E3,1.0147721E4,3.9585812E4,2.4718125E4],"tree_param":{"num_deleted":"0","num_feature":"36","num_nodes":"109","size_leaf_vector":"1"}},{"base_weights":[3.9096527E-2,-7.333774E-1,3.2071143E-1,-1.3160465E0,-4.6028495E-1,2.2427922E-2,6.647725E-1,-1.5518615E0,-1.1298848E0,-5.9610456E-1,1.4496905E-1,2.5442144E-1,-2.7127022E-1,3.9126944E-2,3.6310104E-1,-1.4241657E0,-1.7019792E0,-8.6259246E-1,-1.2854266E0,-3.0479002E-1,-8.5254633E-1,3.950227E-2,-5.6227785E-1,-4.8661035E-2,4.643832E-1,3.8728632E-2,-4.0845183E-1,6.613114E-1,1.3323157E-1,-1.4517503E0,-1.6237123E-1,-1.4168403E0,-1.7461752E0,-9.273911E-1,2.4416275E-1,-1.3539623E0,-9.582184E-1,-5.834754E-1,6.573942E-2,-1.0319185E0,-6.1650944E-1,-1.2190732E-1,-7.264988E-1,-2.2928482E-1,1.5919341E-1,3.9108228E-2,1.9482118E-1,-3.2892388E-1,1.3193706E0,-6.030421E-1,-2.0339076E-1,4.5527148E-1,8.208647E-1,-1.3461857E-1,3.2819325E-1,-3.572788E-2,-4.700703E-2,4.1208755E-2,-3.9530054E-2,-4.675104E-3,-4.299637E-2,-5.317929E-2,-4.5369253E-2,2.4494405E-3,-2.9592289E-2,3.9898336E-2,-2.1570023E-2,-4.323132E-2,-3.5374176E-2,4.1455235E-2,-3.329482E-2,-2.0423425E-2,-6.061879E-3,3.9477848E-2,-1.1758702E-2,-3.4827165E-2,-2.5924524E-2,3.9700717E-2,-2.695397E-2,-1.0080282E-2,7.57226E-3,-1.7918129E-2,-3.1885177E-2,-4.1386248E-3,-2.1094628E-2,7.3773335E-3,-6.9812913E-3,-3.2061518E-3,1.4584581E-2,-1.7122725E-2,-3.7866703E-3,4.0092878E-2,-5.4221945E-3,-2.4164336E-2,-1.3102696E-2,-3.754045E-3,-1.8959856E-2,8.351535E-3,1.9691478E-2,3.977815E-2,1.8249504E-2,9.951217E-3,-6.49939E-3,4.047611E-2,7.445879E-3],"categories":[],"categories_nodes":[],"categories_segments":[],"categories_sizes":[],"default_left":[0,0,0,0,0,0,0,0,0,0,0,0,0,0,0,0,0,0,0,0,0,0,0,0,0,0,0,0,0,0,0,0,0,0,0,0,0,0,0,0,0,0,0,0,0,0,0,0,0,0,0,0,0,0,0,0,0,0,0,0,0,0,0,0,0,0,0,0,0,0,0,0,0,0,0,0,0,0,0,0,0,0,0,0,0,0,0,0,0,0,0,0,0,0,0,0,0,0,0,0,0,0,0,0,0],"id":10,"left_children":[1,3,5,7,9,11,13,15,17,19,21,23,25,-1,27,29,31,33,35,37,39,-1,41,43,45,47,49,51,53,55,57,59,61,63,65,67,69,71,73,75,77,79,81,83,85,-1,87,89,91,93,95,97,99,101,103,-1,-1,-1,-1,-1,-1,-1,-1,-1,-1,-1,-1,-1,-1,-1,-1,-1,-1,-1,-1,-1,-1,-1,-1,-1,-1,-1,-1,-1,-1,-1,-1,-1,-1,-1,-1,-1,-1,-1,-1,-1,-1,-1,-1,-1,-1,-1,-1,-1,-1],"loss_changes":[1.0596432E5,2.0707023E4,3.663459E4,1.8213516E3,7.2841816E3,1.3027943E4,3.1976312E4,3.4873047E2,9.6391016E2,5.406088E3,1.3459736E4,6.797845E3,3.5884053E3,0E0,7.720671E3,3.445039E2,1.0357031E2,6.1278955E2,3.2770508E2,3.4987742E3,1.6288711E3,0E0,7.3237646E2,1.6413723E3,1.4275932E4,1.2188573E4,2.3340146E3,1.6113594E3,3.3215024E3,2.8923633E2,3.7982303E2,2.3199951E1,4.2390625E1,4.8062158E2,4.9584384E2,1.8293164E2,9.041365E2,7.175635E2,8.323514E3,4.7220117E2,9.092342E3,2.2065948E2,3.2000684E2,1.0122716E3,6.908862E2,0E0,4.198307E3,9.858806E2,1.4800098E2,1.00996484E3,9.5526184E2,7.6105566E2,2.9652578E3,1.0250024E3,3.0063232E3,0E0,0E0,0E0,0E0,0E0,0E0,0E0,0E0,0E0,0E0,0E0,0E0,0E0,0E0,0E0,0E0,0E0,0E0,0E0,0E0,0E0,0E0,0E0,0E0,0E0,0E0,0E0,0E0,0E0,0E0,0E0,0E0,0E0,0E0,0E0,0E0,0E0,0E0,0E0,0E0,0E0,0E0,0E0,0E0,0E0,0E0,0E0,0E0,0E0,0E0],"parents":[2147483647,0,0,1,1,2,2,3,3,4,4,5,5,6,6,7,7,8,8,9,9,10,10,11,11,12,12,14,14,15,15,16,16,17,17,18,18,19,19,20,20,22,22,23,23,24,24,25,25,26,26,27,27,28,28,29,29,30,30,31,31,32,32,33,33,34,34,35,35,36,36,37,37,38,38,39,39,40,40,41,41,42,42,43,43,44,44,46,46,47,47,48,48,49,49,50,50,51,51,52,52,53,53,54,54],"right_children":[2,4,6,8,10,12,14,16,18,20,22,24,26,-1,28,30,32,34,36,38,40,-1,42,44,46,48,50,52,54,56,58,60,62,64,66,68,70,72,74,76,78,80,82,84,86,-1,88,90,92,94,96,98,100,102,104,-1,-1,-1,-1,-1,-1,-1,-1,-1,-1,-1,-1,-1,-1,-1,-1,-1,-1,-1,-1,-1,-1,-1,-1,-1,-1,-1,-1,-1,-1,-1,-1,-1,-1,-1,-1,-1,-1,-1,-1,-1,-1,-1,-1,-1,-1,-1,-1,-1,-1],"split_conditions":[1.6606648E-2,1.143472E-2,3.7E1,9.651941E-3,3.7E1,1E0,6E1,3E0,1E0,1E0,6E1,2.2460667E-2,2E0,3.9126944E-2,1E0,3.7E1,1.0666651E1,3.7E1,5.753996E-4,2.2460667E-2,2.2460667E-2,3.950227E-2,1E0,1.0527E1,1E0,6.68E2,1.0845E1,2.2460667E-2,2.389435E-2,1E0,6E1,3E0,8.8872933E-1,2E0,6E1,8.462E0,1.3106542E-2,5.753996E-4,1E0,8.728518E0,1E0,2.2460667E-2,3E0,1E0,1E0,3.9108228E-2,1.0197533E0,1.0218E1,8.02E2,2.2460667E-2,1E0,1.1893E1,1E0,2E0,1E0,-3.572788E-2,-4.700703E-2,4.1208755E-2,-3.9530054E-2,-4.675104E-3,-4.299637E-2,-5.317929E-2,-4.5369253E-2,2.4494405E-3,-2.9592289E-2,3.9898336E-2,-2.1570023E-2,-4.323132E-2,-3.5374176E-2,4.1455235E-2,-3.329482E-2,-2.0423425E-2,-6.061879E-3,3.9477848E-2,-1.1758702E-2,-3.4827165E-2,-2.5924524E-2,3.9700717E-2,-2.695397E-2,-1.0080282E-2,7.57226E-3,-1.7918129E-2,-3.1885177E-2,-4.1386248E-3,-2.1094628E-2,7.3773335E-3,-6.9812913E-3,-3.2061518E-3,1.4584581E-2,-1.7122725E-2,-3.7866703E-3,4.0092878E-2,-5.4221945E-3,-2.4164336E-2,-1.3102696E-2,-3.754045E-3,-1.8959856E-2,8.351535E-3,1.9691478E-2,3.977815E-2,1.8249504E-2,9.951217E-3,-6.49939E-3,4.047611E-2,7.445879E-3],"split_indices":[21,21,1,21,1,6,1,20,6,6,1,11,20,0,6,1,34,1,23,11,11,0,6,31,11,15,31,11,21,6,1,12,16,20,1,31,23,23,11,31,11,11,20,25,25,0,11,31,15,11,25,31,11,20,26,0,0,0,0,0,0,0,0,0,0,0,0,0,0,0,0,0,0,0,0,0,0,0,0,0,0,0,0,0,0,0,0,0,0,0,0,0,0,0,0,0,0,0,0,0,0,0,0,0,0],"split_type":[0,0,0,0,0,0,0,0,0,0,0,0,0,0,0,0,0,0,0,0,0,0,0,0,0,0,0,0,0,0,0,0,0,0,0,0,0,0,0,0,0,0,0,0,0,0,0,0,0,0,0,0,0,0,0,0,0,0,0,0,0,0,0,0,0,0,0,0,0,0,0,0,0,0,0,0,0,0,0,0,0,0,0,0,0,0,0,0,0,0,0,0,0,0,0,0,0,0,0,0,0,0,0,0,0],"sum_hessian":[4.8710025E5,1.3013537E5,3.5696488E5,4.152786E4,8.860751E4,1.912028E5,1.6576208E5,1.8317428E4,2.3210434E4,7.2368055E4,1.6239448E4,1.0682298E5,8.437982E4,5.3132574E4,1.126295E5,9.903565E3,8.413861E3,8.540485E3,1.4669948E4,3.3881406E4,3.848665E4,6.112063E3,1.0127385E4,4.371729E4,6.3105684E4,2.5885428E4,5.8494395E4,4.902602E4,6.360348E4,9.691544E3,2.1202122E2,1.1335565E3,7.280305E3,8.068264E3,4.72221E2,1.2126783E4,2.5431648E3,1.9336967E4,1.454444E4,2.186633E4,1.6620318E4,2.7513037E3,7.3760815E3,2.3390787E4,2.0326504E4,1.5340975E4,4.7764707E4,2.0112254E4,5.773174E3,3.0012469E4,2.8481926E4,2.139777E4,2.7628252E4,2.6793398E4,3.6810082E4,2.971754E3,6.7197905E3,9.093367E1,1.2108756E2,1.4663631E1,1.1188928E3,6.534214E3,7.4609125E2,4.458137E2,7.6224507E3,2.2180156E2,2.5041945E2,8.089868E3,4.036915E3,1.5424847E2,2.3889163E3,1.5405861E4,3.931105E3,3.897263E3,1.0647178E4,1.2358598E4,9.507733E3,2.108701E3,1.4511618E4,1.7502782E3,1.00102545E3,5.3307075E3,2.0453739E3,1.9612154E4,3.7786343E3,1.6644002E4,3.682501E3,2.3465393E4,2.4299316E4,9.170065E3,1.09421875E4,5.7083696E3,6.4804474E1,1.3533264E4,1.6479205E4,2.4085596E4,4.39633E3,1.1385796E4,1.0011974E4,8.1814893E3,1.9446764E4,4.0075483E3,2.2785852E4,2.6734026E3,3.413668E4],"tree_param":{"num_deleted":"0","num_feature":"36","num_nodes":"105","size_leaf_vector":"1"}},{"base_weights":[3.920696E-2,-7.06919E-1,3.3316913E-1,-1.2582116E0,-4.4328144E-1,5.6697613E-1,8.1344165E-2,-1.4864835E0,-1.099152E0,-1.5652272E-1,-7.115994E-1,3.076286E-1,8.625166E-1,-1.9193904E-1,3.0247736E-1,-1.5022384E0,-1.662163E-1,-6.523513E-1,-1.1806058E0,-4.3730712E-1,1.851406E-1,-7.5037766E-1,8.894548E-1,1.7084936E-2,4.9606654E-1,1.0017332E0,4.743746E-1,-3.4198466E-1,8.434717E-2,6.280925E-1,-1.870399E-1,-1.5409597E0,-1.1369199E0,-6.0267323E-1,1.1893005E0,-1.2618889E0,7.7774733E-1,-1.2578328E0,-8.257599E-1,-4.6766698E-1,1.1235459E0,3.9060257E-2,-2.606142E-1,-9.392614E-1,-5.161442E-1,1.2705784E0,-1.1462785E0,-1.7554839E-1,1.8266544E-1,3.8716964E-2,2.4442516E-1,1.2722272E0,8.0947524E-1,2.4421251E-1,7.2298884E-1,-2.5950825E-1,-8.877755E-1,4.0904418E-2,-8.8002525E-2,1.2604651E0,3.5363925E-1,-5.2316405E-2,-6.7472404E-1,-3.9429255E-2,-4.815532E-2,4.908773E-2,-4.2208344E-2,-4.9673873E-3,-4.3921962E-2,3.9498463E-2,-2.2047723E-2,-1.2353215E-2,-3.8703572E-2,-3.2291956E-2,4.587991E-2,-4.052348E-2,-3.2039326E-2,4.537678E-2,-3.4369946E-2,-1.1792663E-2,-3.1213323E-2,3.83844E-2,-1.798154E-2,-1.6960176E-2,6.2593357E-3,-2.5989052E-2,-3.758837E-2,3.942441E-2,-2.3779746E-2,3.8456686E-2,-4.657469E-3,-4.1021526E-2,2.5409558E-3,-2.575554E-3,-2.6139576E-2,2.6072346E-2,-2.1343234E-3,-1.9239595E-3,1.5801406E-2,2.764844E-2,3.8734127E-2,3.8122855E-2,2.2417141E-2,1.0311376E-2,-7.4979374E-3,3.936898E-2,1.1264058E-2,-1.4748037E-2,-2.5633755E-3,-3.4925308E-2,-1.37430895E-2,-4.41664E-3,3.9250482E-2,1.4828551E-2,3.8909085E-2,3.7660204E-2,8.698701E-3,3.943084E-2,-2.5607762E-3,-2.9734893E-2,-1.4553043E-2],"categories":[],"categories_nodes":[],"categories_segments":[],"categories_sizes":[],"default_left":[0,0,0,0,0,0,0,0,0,0,0,0,0,0,0,0,0,0,0,0,0,0,0,0,0,0,0,0,0,0,0,0,0,0,0,0,0,0,0,0,0,0,0,0,0,0,0,0,0,0,0,0,0,0,0,0,0,0,0,0,0,0,0,0,0,0,0,0,0,0,0,0,0,0,0,0,0,0,0,0,0,0,0,0,0,0,0,0,0,0,0,0,0,0,0,0,0,0,0,0,0,0,0,0,0,0,0,0,0,0,0,0,0,0,0,0,0,0,0,0,0],"id":11,"left_children":[1,3,5,7,9,11,13,15,17,19,21,23,25,27,29,31,33,35,37,39,41,43,45,47,49,51,53,55,57,59,61,63,65,67,69,71,73,75,77,79,81,-1,83,85,87,89,91,93,95,-1,97,99,101,103,105,107,109,-1,111,113,115,117,119,-1,-1,-1,-1,-1,-1,-1,-1,-1,-1,-1,-1,-1,-1,-1,-1,-1,-1,-1,-1,-1,-1,-1,-1,-1,-1,-1,-1,-1,-1,-1,-1,-1,-1,-1,-1,-1,-1,-1,-1,-1,-1,-1,-1,-1,-1,-1,-1,-1,-1,-1,-1,-1,-1,-1,-1,-1,-1],"loss_changes":[1.06484484E5,1.9942578E4,2.050595E4,1.6101172E3,7.142209E3,1.3842238E4,1.0133213E4,3.7886328E2,9.5146094E2,4.304886E3,2.9780098E3,5.2663965E3,4.5606445E3,3.1090596E3,1.477324E4,2.5303125E2,1.2853966E2,3.519775E3,6.0538477E2,1.1677246E3,1.0078127E4,2.0710332E3,8.816636E2,1.207113E3,1.1665151E4,3.2297734E3,1.2750024E3,2.1875894E3,5.819243E3,9.659682E3,2.432545E3,2.348789E2,1.2977114E3,6.154088E1,1.3941612E1,6.740283E1,1.6836176E3,3.1924023E2,2.9626218E3,1.0317041E3,1.271051E2,0E0,2.0691187E3,5.9209766E2,1.0580488E4,1.561792E1,4.8951492E1,1.0916606E3,3.545653E3,0E0,3.8598882E3,1.6992969E2,1.0416836E3,5.691199E2,2.1934048E3,1.7057222E3,7.571553E2,0E0,1.9237588E3,4.7049805E2,2.2285273E3,1.3102234E3,4.803911E2,0E0,0E0,0E0,0E0,0E0,0E0,0E0,0E0,0E0,0E0,0E0,0E0,0E0,0E0,0E0,0E0,0E0,0E0,0E0,0E0,0E0,0E0,0E0,0E0,0E0,0E0,0E0,0E0,0E0,0E0,0E0,0E0,0E0,0E0,0E0,0E0,0E0,0E0,0E0,0E0,0E0,0E0,0E0,0E0,0E0,0E0,0E0,0E0,0E0,0E0,0E0,0E0,0E0,0E0,0E0,0E0,0E0,0E0],"parents":[2147483647,0,0,1,1,2,2,3,3,4,4,5,5,6,6,7,7,8,8,9,9,10,10,11,11,12,12,13,13,14,14,15,15,16,16,17,17,18,18,19,19,20,20,21,21,22,22,23,23,24,24,25,25,26,26,27,27,28,28,29,29,30,30,31,31,32,32,33,33,34,34,35,35,36,36,37,37,38,38,39,39,40,40,42,42,43,43,44,44,45,45,46,46,47,47,48,48,50,50,51,51,52,52,53,53,54,54,55,55,56,56,58,58,59,59,60,60,61,61,62,62],"right_children":[2,4,6,8,10,12,14,16,18,20,22,24,26,28,30,32,34,36,38,40,42,44,46,48,50,52,54,56,58,60,62,64,66,68,70,72,74,76,78,80,82,-1,84,86,88,90,92,94,96,-1,98,100,102,104,106,108,110,-1,112,114,116,118,120,-1,-1,-1,-1,-1,-1,-1,-1,-1,-1,-1,-1,-1,-1,-1,-1,-1,-1,-1,-1,-1,-1,-1,-1,-1,-1,-1,-1,-1,-1,-1,-1,-1,-1,-1,-1,-1,-1,-1,-1,-1,-1,-1,-1,-1,-1,-1,-1,-1,-1,-1,-1,-1,-1,-1,-1,-1,-1],"split_conditions":[4.3727167E2,2.9664E2,1E0,9.651941E-3,1E0,2.9982311E1,2.9982311E1,3.3211006E1,-2.2303943E-1,2.2460667E-2,3.1826017E1,2.2460667E-2,4.0803486E1,1.6298405E1,4.0803486E1,5.753996E-4,2.4912E2,-2.439129E0,2.8476E2,3.1826017E1,1E0,2.2460667E-2,4.6823864E1,5.2344E2,1E0,1E0,2.2460667E-2,1.8108708E0,1E0,1E0,4.5438614E1,5.2E4,1E0,3.543462E1,-2.8478178E-1,3.1826017E1,2.4804E2,1.975E1,7.969606E-1,1.2769606E0,4.3959724E1,3.9060257E-2,1.0197533E0,8.508708E-1,1E0,1.144E1,7.35E0,1.8108708E0,1E0,3.8716964E-2,1.0197533E0,3.0054646E1,9.894E2,4.5438614E1,1E0,2.2460667E-2,5.0976E2,4.0904418E-2,2.8327274E1,3.0054646E1,9.894E2,6.9084E2,1.3293172E-2,-3.9429255E-2,-4.815532E-2,4.908773E-2,-4.2208344E-2,-4.9673873E-3,-4.3921962E-2,3.9498463E-2,-2.2047723E-2,-1.2353215E-2,-3.8703572E-2,-3.2291956E-2,4.587991E-2,-4.052348E-2,-3.2039326E-2,4.537678E-2,-3.4369946E-2,-1.1792663E-2,-3.1213323E-2,3.83844E-2,-1.798154E-2,-1.6960176E-2,6.2593357E-3,-2.5989052E-2,-3.758837E-2,3.942441E-2,-2.3779746E-2,3.8456686E-2,-4.657469E-3,-4.1021526E-2,2.5409558E-3,-2.575554E-3,-2.6139576E-2,2.6072346E-2,-2.1343234E-3,-1.9239595E-3,1.5801406E-2,2.764844E-2,3.8734127E-2,3.8122855E-2,2.2417141E-2,1.0311376E-2,-7.4979374E-3,3.936898E-2,1.1264058E-2,-1.4748037E-2,-2.5633755E-3,-3.4925308E-2,-1.37430895E-2,-4.41664E-3,3.9250482E-2,1.4828551E-2,3.8909085E-2,3.7660204E-2,8.698701E-3,3.943084E-2,-2.5607762E-3,-2.9734893E-2,-1.4553043E-2],"split_indices":[33,33,6,21,6,18,18,18,27,11,18,11,18,2,18,23,33,27,33,18,11,11,18,33,11,26,11,27,26,26,18,7,10,18,27,18,33,9,27,27,18,0,11,27,11,2,2,27,26,0,11,18,33,18,11,11,33,0,18,18,33,33,21,0,0,0,0,0,0,0,0,0,0,0,0,0,0,0,0,0,0,0,0,0,0,0,0,0,0,0,0,0,0,0,0,0,0,0,0,0,0,0,0,0,0,0,0,0,0,0,0,0,0,0,0,0,0,0,0,0,0],"split_type":[0,0,0,0,0,0,0,0,0,0,0,0,0,0,0,0,0,0,0,0,0,0,0,0,0,0,0,0,0,0,0,0,0,0,0,0,0,0,0,0,0,0,0,0,0,0,0,0,0,0,0,0,0,0,0,0,0,0,0,0,0,0,0,0,0,0,0,0,0,0,0,0,0,0,0,0,0,0,0,0,0,0,0,0,0,0,0,0,0,0,0,0,0,0,0,0,0,0,0,0,0,0,0,0,0,0,0,0,0,0,0,0,0,0,0,0,0,0,0,0,0],"sum_hessian":[4.854906E5,1.3721477E5,3.482758E5,4.438905E4,9.282572E4,1.8059816E5,1.6767766E5,1.8225164E4,2.6163887E4,4.48717E4,4.7954023E4,9.618999E4,8.4408164E4,7.499574E4,9.2681914E4,1.801011E4,2.1505403E2,4.035707E3,2.212818E4,2.4630049E4,2.024165E4,4.682054E4,1.1334833E3,3.784289E4,5.83471E4,6.2124223E4,2.2283943E4,4.8601168E4,2.6394578E4,5.5658758E4,3.7023156E4,1.6281191E4,1.7289181E3,1.6309514E2,5.1958897E1,2.8297336E3,1.2059734E3,1.8170984E4,3.9571956E3,2.4160803E4,4.69247E2,5.773598E3,1.4468053E4,2.591772E4,2.0902818E4,9.5505646E2,1.7842682E2,1.7492443E4,2.035045E4,1.4033974E4,4.431313E4,2.5808195E4,3.6316027E4,1.1572416E4,1.0711528E4,4.222228E4,6.378886E3,3.1332822E3,2.3261295E4,1.6844186E4,3.881457E4,2.901016E4,8.0129946E3,3.5992786E3,1.2681912E4,1.5295883E2,1.5759592E3,1.0898529E2,5.410985E1,4.903059E1,2.9283044E0,9.144899E1,2.7382847E3,3.477201E2,8.582533E2,1.2194597E4,5.9763867E3,4.757816E2,3.481414E3,2.1378861E4,2.7819404E3,4.3053845E2,3.8708557E1,8.771713E3,5.696339E3,2.1030105E4,4.8876147E3,2.742961E3,1.8159857E4,9.476398E2,7.416705E0,1.5116418E2,2.7262634E1,1.5495886E4,1.9965575E3,5.492874E3,1.4857574E4,2.1171863E4,2.3141266E4,1.3232833E3,2.4484912E4,4.31499E3,3.2001037E4,9.633028E3,1.9393876E3,3.9724443E3,6.739084E3,1.8094045E4,2.4128236E4,3.8807512E3,2.498135E3,2.2315785E4,9.455103E2,7.666999E2,1.6077486E4,2.5592092E3,3.625536E4,6.839191E2,2.832624E4,3.000905E3,5.0120894E3],"tree_param":{"num_deleted":"0","num_feature":"36","num_nodes":"121","size_leaf_vector":"1"}},{"base_weights":[3.8673438E-2,-6.834381E-1,3.256754E-1,-1.1810818E0,-4.0659407E-1,6.1191786E-2,5.756824E-1,-1.0665295E0,-1.5259318E0,-1.2808965E-1,-6.7104214E-1,2.7801448E-1,-2.1366212E-1,1.2839123E0,2.5726342E-1,-8.164282E-1,-1.2159963E0,-1.2153966E0,-1.5841964E0,7.135745E-1,-2.3237336E-1,-7.1062595E-1,9.2838293E-1,3.5847923E-1,-3.2856458E-1,7.191055E-2,-3.3845997E-1,1.2816691E0,3.946265E-2,-2.4161865E-1,4.2522365E-1,-8.79653E-1,2.1903025E-1,-1.3938439E0,-1.0743192E0,-1.3887113E0,-1.0590088E0,-1.6302298E0,-1.3897529E0,1.333155E0,-6.887672E-1,2.1921335E-1,-3.8455087E-1,-2.754216E-1,-8.1211925E-1,3.9236605E-2,-1.389998E0,6.2689674E-1,1.9924735E-1,-4.469934E-1,5.128944E-2,-2.80299E-1,1.2840445E0,-5.1976174E-1,-1.6221964E-1,3.831348E-2,3.87542E-2,1.7912425E-1,-4.44446E-1,6.9070643E-1,2.1004373E-1,-5.7682795E-3,-2.8692711E-2,4.5927044E-2,-4.059574E-2,-4.0405426E-2,-5.1955123E-2,-2.319831E-2,-3.798157E-2,-4.466632E-2,-3.086088E-2,-2.2338897E-2,-3.853795E-2,-4.9209725E-2,-2.8561795E-2,-4.096052E-2,-6.022966E-2,4.0519625E-2,-2.9632766E-2,-3.45975E-2,3.4971956E-2,-1.0520551E-2,3.9145455E-2,-1.2319991E-2,3.8443E-2,-2.1577666E-2,3.3239603E-2,-7.975422E-3,-2.5974717E-2,-3.1149046E-2,-5.8665156E-2,5.2468507E-3,3.959484E-2,4.981553E-3,4.1121468E-2,-3.0658195E-2,-1.2138331E-2,-4.0801972E-2,2.5021883E-3,-1.3243503E-2,-1.3405433E-3,3.957213E-2,-1.9712068E-2,-1.177897E-2,-2.348524E-2,-2.574601E-3,-1.7383138E-2,8.050677E-3,-1.6035795E-2,-2.6334276E-2,-9.463789E-3,3.051596E-2,1.8120095E-2,1.6234517E-2,2.8942642E-3],"categories":[],"categories_nodes":[],"categories_segments":[],"categories_sizes":[],"default_left":[0,0,0,0,0,0,0,0,0,0,0,0,0,0,0,0,0,0,0,0,0,0,0,0,0,0,0,0,0,0,0,0,0,0,0,0,0,0,0,0,0,0,0,0,0,0,0,0,0,0,0,0,0,0,0,0,0,0,0,0,0,0,0,0,0,0,0,0,0,0,0,0,0,0,0,0,0,0,0,0,0,0,0,0,0,0,0,0,0,0,0,0,0,0,0,0,0,0,0,0,0,0,0,0,0,0,0,0,0,0,0,0,0,0,0],"id":12,"left_children":[1,3,5,7,9,11,13,15,17,19,21,23,25,27,29,31,33,35,37,39,41,43,45,47,49,51,53,55,-1,57,59,61,63,65,67,69,71,73,75,77,79,81,83,85,87,-1,89,91,93,95,97,99,101,103,105,-1,-1,107,109,111,113,-1,-1,-1,-1,-1,-1,-1,-1,-1,-1,-1,-1,-1,-1,-1,-1,-1,-1,-1,-1,-1,-1,-1,-1,-1,-1,-1,-1,-1,-1,-1,-1,-1,-1,-1,-1,-1,-1,-1,-1,-1,-1,-1,-1,-1,-1,-1,-1,-1,-1,-1,-1,-1,-1],"loss_changes":[1.0033445E5,1.896918E4,2.2907379E4,1.9426406E3,6.516043E3,1.0032564E4,4.0162043E4,1.3802148E3,2.2008008E2,3.782532E3,2.8738672E3,4.5933687E3,2.6458118E3,2.2109375E0,1.029465E4,9.052334E2,5.811797E2,5.1187256E1,9.018359E1,4.1288413E3,2.635081E3,1.9559375E3,9.665236E2,3.5510625E3,4.9586475E2,9.6393125E3,1.6506631E3,7.421875E-1,0E0,2.640897E3,5.2505566E3,6.873662E2,1.6445676E3,1.6048828E2,7.422129E2,3.158374E1,7.1770996E1,5.556836E1,2.7171875E1,1.351753E2,1.2559471E3,5.9801865E3,1.2483027E3,5.1439604E3,1.0533105E3,0E0,2.8741608E1,9.689207E3,2.0278215E3,2.0433813E2,1.18900246E2,6.642612E2,3.4649512E2,8.51374E2,8.350274E2,0E0,0E0,6.411637E2,1.1668779E3,1.164168E3,1.908977E3,0E0,0E0,0E0,0E0,0E0,0E0,0E0,0E0,0E0,0E0,0E0,0E0,0E0,0E0,0E0,0E0,0E0,0E0,0E0,0E0,0E0,0E0,0E0,0E0,0E0,0E0,0E0,0E0,0E0,0E0,0E0,0E0,0E0,0E0,0E0,0E0,0E0,0E0,0E0,0E0,0E0,0E0,0E0,0E0,0E0,0E0,0E0,0E0,0E0,0E0,0E0,0E0,0E0,0E0],"parents":[2147483647,0,0,1,1,2,2,3,3,4,4,5,5,6,6,7,7,8,8,9,9,10,10,11,11,12,12,13,13,14,14,15,15,16,16,17,17,18,18,19,19,20,20,21,21,22,22,23,23,24,24,25,25,26,26,27,27,29,29,30,30,31,31,32,32,33,33,34,34,35,35,36,36,37,37,38,38,39,39,40,40,41,41,42,42,43,43,44,44,46,46,47,47,48,48,49,49,50,50,51,51,52,52,53,53,54,54,57,57,58,58,59,59,60,60],"right_children":[2,4,6,8,10,12,14,16,18,20,22,24,26,28,30,32,34,36,38,40,42,44,46,48,50,52,54,56,-1,58,60,62,64,66,68,70,72,74,76,78,80,82,84,86,88,-1,90,92,94,96,98,100,102,104,106,-1,-1,108,110,112,114,-1,-1,-1,-1,-1,-1,-1,-1,-1,-1,-1,-1,-1,-1,-1,-1,-1,-1,-1,-1,-1,-1,-1,-1,-1,-1,-1,-1,-1,-1,-1,-1,-1,-1,-1,-1,-1,-1,-1,-1,-1,-1,-1,-1,-1,-1,-1,-1,-1,-1,-1,-1,-1,-1],"split_conditions":[4.3727167E2,3.0456E2,3.7E1,3E0,1E0,1E0,6E1,1E0,4.29E4,2E0,3.7E1,1E0,2E0,4.147346E1,1.41515255E1,7.38E2,2.646E2,5.182188E0,8.762E0,1.3283819E0,2E0,2E0,6E1,2E0,1.3152E1,6.68E2,1.0919E1,1.8131601E1,3.946265E-2,1E0,1E0,2E0,8.02E2,8.02E2,3.7696058E-1,8.900234E-1,6.112199E0,9.2400736E-1,6.5E1,6E1,3.3701202E2,6.68E2,3.7E1,6.68E2,2E0,3.9236605E-2,1.32E4,6.68E2,8.01E1,7.337365E-1,7.5760975E0,1.1565E1,8.02E2,1E1,1E0,3.831348E-2,3.87542E-2,3E0,6.3216E2,1E0,2E0,-5.7682795E-3,-2.8692711E-2,4.5927044E-2,-4.059574E-2,-4.0405426E-2,-5.1955123E-2,-2.319831E-2,-3.798157E-2,-4.466632E-2,-3.086088E-2,-2.2338897E-2,-3.853795E-2,-4.9209725E-2,-2.8561795E-2,-4.096052E-2,-6.022966E-2,4.0519625E-2,-2.9632766E-2,-3.45975E-2,3.4971956E-2,-1.0520551E-2,3.9145455E-2,-1.2319991E-2,3.8443E-2,-2.1577666E-2,3.3239603E-2,-7.975422E-3,-2.5974717E-2,-3.1149046E-2,-5.8665156E-2,5.2468507E-3,3.959484E-2,4.981553E-3,4.1121468E-2,-3.0658195E-2,-1.2138331E-2,-4.0801972E-2,2.5021883E-3,-1.3243503E-2,-1.3405433E-3,3.957213E-2,-1.9712068E-2,-1.177897E-2,-2.348524E-2,-2.574601E-3,-1.7383138E-2,8.050677E-3,-1.6035795E-2,-2.6334276E-2,-9.463789E-3,3.051596E-2,1.8120095E-2,1.6234517E-2,2.8942642E-3],"split_indices":[33,33,1,20,6,6,1,6,7,4,1,25,20,18,2,15,33,5,31,27,20,20,1,20,31,15,31,2,0,6,6,20,15,15,27,16,5,16,13,1,33,15,1,15,4,0,29,15,13,16,35,31,15,5,25,0,0,20,33,26,20,0,0,0,0,0,0,0,0,0,0,0,0,0,0,0,0,0,0,0,0,0,0,0,0,0,0,0,0,0,0,0,0,0,0,0,0,0,0,0,0,0,0,0,0,0,0,0,0,0,0,0,0,0,0],"split_type":[0,0,0,0,0,0,0,0,0,0,0,0,0,0,0,0,0,0,0,0,0,0,0,0,0,0,0,0,0,0,0,0,0,0,0,0,0,0,0,0,0,0,0,0,0,0,0,0,0,0,0,0,0,0,0,0,0,0,0,0,0,0,0,0,0,0,0,0,0,0,0,0,0,0,0,0,0,0,0,0,0,0,0,0,0,0,0,0,0,0,0,0,0,0,0,0,0,0,0,0,0,0,0,0,0,0,0,0,0,0,0,0,0,0,0],"sum_hessian":[4.8412675E5,1.376901E5,3.4643666E5,4.9216766E4,8.847332E4,1.6834497E5,1.7809169E5,3.694761E4,1.2269155E4,4.3092152E4,4.538117E4,9.4107125E4,7.423785E4,5.5234867E4,1.2285683E5,1.3823435E4,2.3124174E4,1.9417875E3,1.0327368E4,4.7499443E3,3.8342207E4,4.428571E4,1.0954625E3,8.3085914E4,1.1021218E4,2.2576613E4,5.1661234E4,5.1602902E4,3.6319658E3,3.094433E4,9.19125E4,1.3028093E4,7.953415E2,1.0249324E4,1.2874851E4,9.1731036E2,1.024477E3,8.344478E3,1.98289E3,3.2944463E3,1.455498E3,9.663962E3,2.8678244E4,8.375439E3,3.591027E4,9.4174146E2,1.537211E2,3.0935293E4,5.2150617E4,8.401627E3,2.6195903E3,1.749412E4,5.082494E3,2.5463992E4,2.6197242E4,3.5696848E4,1.5906053E4,1.0065233E4,2.0879098E4,4.1145797E4,5.0766703E4,1.3092294E3,1.1718863E4,4.3358325E2,3.6175824E2,9.002548E3,1.2467758E3,5.0114126E3,7.863438E3,7.1518964E2,2.0212077E2,4.298057E2,5.946713E2,8.220695E3,1.2378261E2,1.9106449E3,7.224518E1,3.2702078E3,2.4238508E1,1.16427E3,2.9122806E2,6.337698E3,3.326264E3,2.8236373E4,4.418718E2,6.341424E3,2.0340159E3,3.214908E3,3.2695363E4,9.652623E1,5.719487E1,1.872328E4,1.2212014E4,5.071467E4,1.4359459E3,5.752224E2,7.826405E3,5.736516E1,2.5622253E3,1.0388148E4,7.1059707E3,4.992723E3,8.9770996E1,1.7169547E4,8.294445E3,2.2143588E4,4.053654E3,8.947146E3,1.1180868E3,4.787715E3,1.6091382E4,8.631611E3,3.2514184E4,1.2964653E4,3.7802047E4],"tree_param":{"num_deleted":"0","num_feature":"36","num_nodes":"115","size_leaf_vector":"1"}},{"base_weights":[3.678853E-2,-6.490221E-1,3.0800405E-1,-1.1464677E0,-3.780984E-1,3.1295262E-2,6.2185794E-1,-1.3304524E0,-9.4155043E-1,2.8344122E-1,-4.7279316E-1,3.416621E-1,-1.2314672E-1,3.817913E-2,3.300848E-1,-1.2094523E0,-1.5025237E0,-6.6373533E-1,-1.12649E0,1.3418357E0,-1.0725048E0,-5.706828E-1,2.142777E-2,-8.323552E-2,1.2974449E0,-3.4495312E-1,4.78661E-2,5.9353173E-2,4.982606E-1,-1.3269898E0,-9.047959E-1,-1.229904E0,-1.5489267E0,-2.13881E-1,-1.0848279E0,-1.2144303E0,-8.6531E-1,1.3458806E0,1.0482935E0,-1.3022743E0,1.0836464E0,-1.650508E-1,-6.797573E-1,3.8629908E-2,-5.271452E-1,-2.966507E-1,8.7868266E-2,1.3137169E0,-5.4204756E-1,-5.745114E-1,-1.9757941E-1,3.9167866E-2,-1.93444E-1,1.906204E-1,-2.922821E-1,6.247611E-1,2.8520823E-1,-2.8594237E-2,-4.15058E-2,4.2635676E-2,-3.6075544E-2,-3.754676E-2,-1.1585842E-2,-4.678095E-2,-2.2111673E-2,-2.6753351E-2,4.43012E-2,-3.892985E-2,-2.8796231E-2,-3.6598023E-2,4.718687E-2,4.343353E-2,-3.255473E-2,4.1667886E-2,3.9594032E-2,4.0554147E-2,-1.9261355E-2,-3.243828E-2,-4.4864573E-2,3.9719906E-2,-3.4258794E-2,-1.7568393E-2,3.543834E-2,-2.7117481E-2,-1.599168E-2,-1.2211086E-2,-2.7867354E-2,-1.5141739E-2,-3.9838366E-3,6.750633E-3,-2.7557877E-3,3.8908314E-2,4.012246E-2,-3.4588445E-2,-2.6779133E-3,-7.7101663E-3,-2.1134779E-2,-9.288741E-3,7.016352E-5,-1.2711756E-2,1.7089819E-3,3.8100544E-2,3.3987989E-3,-2.3682771E-2,-6.355016E-3,1.2399636E-2,2.2762472E-2,2.6981856E-3,1.4377975E-2],"categories":[],"categories_nodes":[],"categories_segments":[],"categories_sizes":[],"default_left":[0,0,0,0,0,0,0,0,0,0,0,0,0,0,0,0,0,0,0,0,0,0,0,0,0,0,0,0,0,0,0,0,0,0,0,0,0,0,0,0,0,0,0,0,0,0,0,0,0,0,0,0,0,0,0,0,0,0,0,0,0,0,0,0,0,0,0,0,0,0,0,0,0,0,0,0,0,0,0,0,0,0,0,0,0,0,0,0,0,0,0,0,0,0,0,0,0,0,0,0,0,0,0,0,0,0,0,0,0],"id":13,"left_children":[1,3,5,7,9,11,13,15,17,19,21,23,25,-1,27,29,31,33,35,37,39,41,43,45,47,49,51,53,55,57,59,61,63,65,67,69,71,73,75,77,79,81,83,-1,85,87,89,91,93,95,97,-1,99,101,103,105,107,-1,-1,-1,-1,-1,-1,-1,-1,-1,-1,-1,-1,-1,-1,-1,-1,-1,-1,-1,-1,-1,-1,-1,-1,-1,-1,-1,-1,-1,-1,-1,-1,-1,-1,-1,-1,-1,-1,-1,-1,-1,-1,-1,-1,-1,-1,-1,-1,-1,-1,-1,-1],"loss_changes":[8.967882E4,1.841384E4,3.000555E4,1.8150781E3,5.541627E3,8.801532E3,3.0738422E4,5.2666016E2,1.1704434E3,1.589894E4,3.7437402E3,2.4777291E4,4.650753E3,0E0,5.0891084E3,5.326289E2,1.3061328E2,1.7259468E3,3.1323828E2,5.9765625E0,2.4074893E3,2.8576133E3,8.88782E3,1.5423265E3,5.627168E2,1.8056836E3,2.101231E4,1.9769911E3,1.8579941E3,2.2600977E2,2.8779617E3,2.7443604E1,7.467969E1,5.051959E3,1.23918945E2,1.589209E2,1.7561272E3,5.0527344E0,4.6575127E1,1.8580762E2,2.5199268E2,7.751588E3,1.6733984E3,0E0,4.30427E2,6.407167E2,5.7788525E2,5.6621094E0,4.5631557E1,8.610796E2,7.282031E2,0E0,3.349654E3,2.6030015E3,4.6547644E2,1.2252344E3,9.733457E2,0E0,0E0,0E0,0E0,0E0,0E0,0E0,0E0,0E0,0E0,0E0,0E0,0E0,0E0,0E0,0E0,0E0,0E0,0E0,0E0,0E0,0E0,0E0,0E0,0E0,0E0,0E0,0E0,0E0,0E0,0E0,0E0,0E0,0E0,0E0,0E0,0E0,0E0,0E0,0E0,0E0,0E0,0E0,0E0,0E0,0E0,0E0,0E0,0E0,0E0,0E0,0E0],"parents":[2147483647,0,0,1,1,2,2,3,3,4,4,5,5,6,6,7,7,8,8,9,9,10,10,11,11,12,12,14,14,15,15,16,16,17,17,18,18,19,19,20,20,21,21,22,22,23,23,24,24,25,25,26,26,27,27,28,28,29,29,30,30,31,31,32,32,33,33,34,34,35,35,36,36,37,37,38,38,39,39,40,40,41,41,42,42,44,44,45,45,46,46,47,47,48,48,49,49,50,50,52,52,53,53,54,54,55,55,56,56],"right_children":[2,4,6,8,10,12,14,16,18,20,22,24,26,-1,28,30,32,34,36,38,40,42,44,46,48,50,52,54,56,58,60,62,64,66,68,70,72,74,76,78,80,82,84,-1,86,88,90,92,94,96,98,-1,100,102,104,106,108,-1,-1,-1,-1,-1,-1,-1,-1,-1,-1,-1,-1,-1,-1,-1,-1,-1,-1,-1,-1,-1,-1,-1,-1,-1,-1,-1,-1,-1,-1,-1,-1,-1,-1,-1,-1,-1,-1,-1,-1,-1,-1,-1,-1,-1,-1,-1,-1,-1,-1,-1,-1],"split_conditions":[1.155E1,8.265369E0,3.7E1,1.0226063E-2,2E0,2E0,6E1,3E0,3.7696058E-1,1.2769606E0,3.7E1,6.68E2,1.6652611E-3,3.817913E-2,1.6298405E1,1.6652611E-3,4.29E4,2E0,7.96E0,3E0,9.44E0,2E0,6E1,1.0218E1,8.01E2,9.618E0,1E0,9.452149E-1,2E0,4.5E4,1E0,2.1427505E0,9.246199E-1,7.49E0,1.434E1,8.1087077E-1,8.452149E-1,2.2460667E-2,1.1837394E0,1.7869606E0,2.4308708E0,6.68E2,1.446198E-2,3.8629908E-2,3E0,1.6652611E-3,6.67E2,1E0,1.367E1,4.2E4,2.3244383E-2,3.9167866E-2,1.0197533E0,3E0,1.7632712E-2,2.2460667E-2,1.3095E1,-2.8594237E-2,-4.15058E-2,4.2635676E-2,-3.6075544E-2,-3.754676E-2,-1.1585842E-2,-4.678095E-2,-2.2111673E-2,-2.6753351E-2,4.43012E-2,-3.892985E-2,-2.8796231E-2,-3.6598023E-2,4.718687E-2,4.343353E-2,-3.255473E-2,4.1667886E-2,3.9594032E-2,4.0554147E-2,-1.9261355E-2,-3.243828E-2,-4.4864573E-2,3.9719906E-2,-3.4258794E-2,-1.7568393E-2,3.543834E-2,-2.7117481E-2,-1.599168E-2,-1.2211086E-2,-2.7867354E-2,-1.5141739E-2,-3.9838366E-3,6.750633E-3,-2.7557877E-3,3.8908314E-2,4.012246E-2,-3.4588445E-2,-2.6779133E-3,-7.7101663E-3,-2.1134779E-2,-9.288741E-3,7.016352E-5,-1.2711756E-2,1.7089819E-3,3.8100544E-2,3.3987989E-3,-2.3682771E-2,-6.355016E-3,1.2399636E-2,2.2762472E-2,2.6981856E-3,1.4377975E-2],"split_indices":[2,2,1,21,4,20,1,20,27,27,1,15,22,0,2,22,7,4,2,20,2,20,1,31,15,31,11,27,8,7,11,11,16,2,9,27,27,11,27,27,27,15,21,0,20,22,15,11,2,7,21,0,11,4,21,11,31,0,0,0,0,0,0,0,0,0,0,0,0,0,0,0,0,0,0,0,0,0,0,0,0,0,0,0,0,0,0,0,0,0,0,0,0,0,0,0,0,0,0,0,0,0,0,0,0,0,0,0,0],"split_type":[0,0,0,0,0,0,0,0,0,0,0,0,0,0,0,0,0,0,0,0,0,0,0,0,0,0,0,0,0,0,0,0,0,0,0,0,0,0,0,0,0,0,0,0,0,0,0,0,0,0,0,0,0,0,0,0,0,0,0,0,0,0,0,0,0,0,0,0,0,0,0,0,0,0,0,0,0,0,0,0,0,0,0,0,0,0,0,0,0,0,0,0,0,0,0,0,0,0,0,0,0,0,0,0,0,0,0,0,0],"sum_hessian":[4.821357E5,1.3663398E5,3.455017E5,4.8175418E4,8.845857E4,1.836171E5,1.6188461E5,2.5381334E4,2.2794084E4,1.1076427E4,7.738214E4,6.101003E4,1.2260706E5,5.0111355E4,1.1177325E5,1.4906876E4,1.0474457E4,9.111473E3,1.368261E4,6.220767E3,4.8556597E3,6.4588945E4,1.2793198E4,4.2235125E4,1.8774906E4,5.3376223E4,6.923084E4,4.282858E4,6.894467E4,1.0754428E4,4.1524487E3,1.5275521E3,8.946905E3,4.4060186E3,4.7054536E3,1.023335E4,3.449261E3,6.132676E3,8.80914E1,4.3884062E3,4.6725333E2,1.3687957E4,5.090099E4,3.8666682E3,8.926529E3,1.8793518E4,2.3441607E4,1.8610564E4,1.6434163E2,2.0868023E4,3.2508197E4,1.1143827E4,5.8087016E4,3.1186836E4,1.1641744E4,4.32581E4,2.5686568E4,1.4150858E3,9.339342E3,4.7076614E2,3.6816824E3,1.4888557E3,3.869642E1,8.832426E3,1.1447946E2,3.1452847E3,1.260734E3,1.7371587E3,2.968295E3,1.0213744E4,1.9605427E1,2.9889523E2,